svm_type c_svc
kernel_type rbf
gamma 0.0001220703125
nr_class 3
total_sv 32
rho 0.45976553249377755 0.56685289746233969 0.54574759538848017
label 0 1 2
nr_sv 8 14 10
SV
135.7734380845352 161.52740089449657 0:0.73095 1:-0.233047 2:0.919835 3:-0.252492 4:-0.909596 5:-0.401123 6:-0.783584 7:-0.0657476 8:-0.0441989 9:0.122503 10:-0.881779 11:-0.993716 12:-0.605323 13:-0.401291 14:0.109617 15:0.166518 16:-0.720717 17:-0.614734 18:-0.246512 19:-0.497656 20:-0.463945 21:-0.198139 22:-0.16087 23:0.394169 24:-0.424834 25:-0.756592 26:-0.84692 27:-0.625435 28:-0.484509 29:0.813037 30:-0.9857 31:-0.274225 32:-0.167404 33:-1 34:-0.516677 35:-0.451747 36:-0.488641 37:0.143525 38:-0.542375 39:-0.537519 40:0.187268 41:0.287653 42:0.662089 43:-1 44:-0.277071 45:-0.174483 46:-0.500162 47:-0.308344 48:-0.615173 49:0.17724 50:-0.502618 51:0.080943 52:-0.331287 53:-0.351365 54:-0.394055 55:-0.611054 56:-0.256787 57:-0.47182 58:-0.271591 59:-0.267224 60:-0.733131 61:0.148218 62:-0.158328 63:-0.0520981 64:-0.556529 65:0.0465558 66:-0.308156 67:-0.369976 68:-0.993504 69:-0.292233 70:-0.0730838 71:0.606665 72:0.239796 73:-0.0788158 74:-0.23185 75:-0.191133 76:-0.401843 77:-0.639775 78:0.231321 79:0.291425 80:0.192254 81:-0.878547 82:-0.447998 83:-0.211344 84:-0.470076 85:0.474502 86:-0.909217 87:-0.571118 88:-0.468688 89:-0.571661 90:-0.940861 91:-0.520074 92:-0.0678321 93:0.212668 94:-0.593759 95:-0.830923 96:-0.229855 97:-0.859968 98:0.143908 99:-0.130362 100:1 101:-0.525718 102:-0.560043 103:-0.694191 104:-0.865418 105:-0.250585 106:-0.194207 107:-0.617975 108:-0.419355 109:-0.366134 110:-0.460248 111:0.262361 112:0.160059 113:-0.125767 114:-1 115:-0.00361185 116:-0.527988 117:-0.25454 118:-0.316337 119:-0.250178 120:-0.918952 121:-0.557587 122:-0.67768 123:0.284793 124:-0.0947598 125:-0.177573 126:0.0611449 127:-1 128:-0.318438 129:-0.712371 130:-0.960848 131:-0.267739 132:-0.522267 133:-0.171216 134:-0.596291 135:-0.06109 136:-0.0842635 137:0.0185492 138:-0.326091 139:0.0950305 140:0.158491 141:-0.668568 142:-0.586281 143:-0.204106 144:0.394169 145:-0.672414 146:-0.733297 147:-0.494242 148:-0.254838 149:-0.254392 150:-0.407842 151:-0.521123 152:-0.381498 153:0.4259 154:-0.138455 155:-0.705281 156:-0.0669284 157:0.0785251 158:-0.306429 159:-0.867337 160:-0.0685146 161:-0.841347 162:-0.281299 163:-0.714125 164:0.237889 165:0.089461 166:-0.375143 167:-0.609717 168:-0.839127 169:-0.748717 170:-0.112305 171:1 172:-0.137637 173:-0.116656 174:0.62621 175:0.094217 176:-0.0988329 177:-0.597469 178:-0.656227 179:-0.662274 180:-0.0631944 181:-0.526621 182:-0.777471 183:-0.504709 184:-0.0529747 185:-0.166753 186:-0.397311 187:-0.507381 188:-0.476494 189:-0.143815 190:-0.223037 191:0.122011 192:-0.235225 193:0.0234934 194:0.173996 195:-0.520465 196:0.455274 197:0.182371 198:-0.452683 199:0.20791 200:-0.0238949 201:-0.142427 202:0.0651997 203:-0.543125 204:0.0421348 205:-0.430377 206:-0.887515 207:1 208:0.012474 209:-0.0109943 210:-0.831902 211:-0.355152 212:-0.240026 213:-0.392672 214:-0.279574 215:-0.0298507 216:-0.152974 217:0.00608744 218:0.450189 219:0.353728 220:-0.380504 221:0.118657 222:-0.508802 223:0.14785 224:0.342702 225:-0.31222 226:-0.622383 227:0.358693 228:-0.118392 229:0.0150943 230:-0.701583 231:-0.183962 232:-0.395849 233:-0.198605 234:-0.444149 235:-0.264408 236:-0.306218 237:0.281373 238:-0.577938 239:-0.0763116 240:-0.337911 241:0.317889 242:-0.280394 243:0.0996519 244:0.255693 245:-0.319489 246:-0.527774 247:-0.547324 248:-0.62639 249:-0.467264 250:-0.377341 251:-0.0729085 252:0.967224 253:0.376121 254:-0.991936 255:-0.325962 256:-0.203684 257:-0.47067 258:0.0960474 259:0.220729 260:-0.332417 261:-0.159825 262:-0.371463 263:-0.585388 264:0.234392 265:-0.277842 266:0.275486 267:-0.203744 268:-0.0442579 269:-0.323275 270:-0.394267 271:-0.541398 272:-0.751369 273:0.145144 274:-0.695343 275:-0.722162 276:-0.193487 277:-0.727131 278:0.244977 279:0.124424 280:-0.456742 281:-0.948088 282:-0.043116 283:-0.317419 284:0.460085 285:-0.682109 286:0.275373 287:0.581873 288:-0.502572 289:-0.0867274 290:0.4613 291:-0.345546 292:0.371232 293:0.165634 294:-0.717371 295:-0.202516 296:-0.481319 297:-0.297489 298:-0.958187 299:0.0531357 300:-0.657 301:-0.410022 302:0.102476 303:0.455371 304:0.132573 305:-0.357912 306:-0.393436 307:0.0868678 308:-0.821156 309:-0.14784 310:-0.726073 311:-0.246059 312:-0.242291 313:0.259396 314:-0.235822 315:0.223331 316:-0.397425 317:0.156294 318:-0.462622 319:-0.515683 320:-0.615125 321:-0.201634 322:-0.0726916 323:-0.9259 324:-0.900532 325:-0.284546 326:-0.581863 327:-0.510717 328:-0.319477 329:-0.4674 330:-0.438028 331:-0.285563 332:-0.378566 333:-0.323158 334:0.191639 335:-0.0485169 336:-0.673789 337:0.338499 338:0.429062 339:0.258934 340:-0.915897 341:0.546746 342:-0.649536 343:-0.80325 344:0.351201 345:-0.517928 346:0.823051 347:-0.161235 348:0.34755 349:-0.0629732 350:-0.567997 351:-0.514789 352:-0.347385 353:0.100896 354:-0.27081 355:-0.422932 356:-0.0804059 357:-0.293593 358:-0.0891698 359:-0.231805 
25.8973688031138 29.637036035004737 0:0.975081 1:-0.669827 2:-0.826033 3:0.128943 4:-0.856681 5:-0.286701 6:-0.722948 7:-0.8579 8:-0.906402 9:0.395473 10:-0.895879 11:-0.950186 12:0.176737 13:-0.656071 14:-0.0615322 15:0.335713 16:-0.196754 17:-0.645801 18:-0.305903 19:-0.718975 20:0.319984 21:-0.227795 22:-0.119324 23:-0.454373 24:-0.661255 25:-0.939654 26:-0.797728 27:0.0304717 28:0.599209 29:-0.361442 30:-0.981108 31:-0.805414 32:-0.0732394 33:-1 34:0.388115 35:-0.569884 36:-0.95225 37:-0.666199 38:-0.504068 39:-1 40:-0.247002 41:0.134413 42:-0.12143 43:-0.97678 44:-0.185692 45:1 46:-0.227347 47:-0.340838 48:-0.724533 49:0.7046 50:-0.119774 51:-0.00196464 52:-0.517723 53:1 54:-0.699635 55:-0.453677 56:-0.415528 57:-0.81792 58:-0.513258 59:-0.854616 60:0.0694137 61:-0.393211 62:-0.60228 63:0.0675046 64:-0.0495483 65:-0.784798 66:-0.249127 67:-0.0359318 68:-0.87992 69:-0.452107 70:-0.340018 71:-0.528271 72:-0.0961538 73:-0.336025 74:-0.438495 75:-0.0221665 76:-0.209649 77:-0.442777 78:-0.285636 79:0.190516 80:0.2119 81:-0.842582 82:-0.424886 83:0.389652 84:-0.521222 85:-0.296118 86:-0.840089 87:-0.941703 88:0.098923 89:-0.210221 90:-0.960936 91:-0.58198 92:-0.108987 93:0.105182 94:-0.836509 95:0.00638026 96:-0.469782 97:-0.953698 98:-0.395483 99:-0.18587 100:0.595066 101:0.310394 102:-0.194967 103:-0.595945 104:-0.699092 105:0.663685 106:0.538143 107:-0.357061 108:0.589197 109:-0.124443 110:0.351058 111:-0.594655 112:-0.489053 113:-0.404226 114:-1 115:-0.0296171 116:-1 117:-0.606574 118:-0.0966856 119:0.229765 120:-0.938829 121:-0.415397 122:-0.432094 123:-0.681475 124:-0.0266376 125:0.448826 126:0.40268 127:-1 128:-0.0712048 129:-1 130:-0.948276 131:0.0192368 132:0.129731 133:1 134:-0.603192 135:0.167554 136:-0.458963 137:0.389232 138:-0.226822 139:0.742807 140:0.0962264 141:-0.68715 142:-1 143:-0.0983122 144:0.0917279 145:-0.657376 146:0.645122 147:-0.421249 148:-0.556025 149:0.182295 150:-0.745575 151:-0.367277 152:-0.167826 153:-0.192458 154:-0.520716 155:-0.0154314 156:-0.486347 157:-0.607033 158:-0.540182 159:-0.561713 160:-0.267782 161:-0.0213696 162:-0.75013 163:-0.820125 164:-0.376996 165:-0.360252 166:0.100956 167:-0.312226 168:-0.640309 169:-0.45011 170:-0.370839 171:-0.695976 172:0.31486 173:0.077355 174:0.273431 175:-0.643925 176:0.190722 177:-0.355211 178:-0.483057 179:-0.872439 180:-0.725003 181:-0.896483 182:-0.273656 183:-0.25203 184:-0.374626 185:-0.0279924 186:-0.525378 187:-1 188:0.674917 189:-0.134798 190:-0.548901 191:0.440703 192:-0.073581 193:-0.396469 194:0.200765 195:-0.344198 196:-0.0205607 197:1 198:-0.499056 199:-0.0423212 200:-0.140382 201:1 202:-0.296251 203:0.0758799 204:-0.59176 205:-0.498366 206:-0.953027 207:-1 208:-0.417879 209:0.788719 210:1 211:-0.885714 212:-0.247002 213:-0.0828355 214:0.692138 215:-0.0555556 216:0.453942 217:0.174322 218:0.277568 219:-0.0368069 220:-0.298809 221:-0.873643 222:-0.940758 223:-0.201664 224:-0.573964 225:-0.355193 226:0.052066 227:0.326021 228:-0.774442 229:1 230:-0.298721 231:-0.680633 232:-0.583395 233:-0.74437 234:-0.726064 235:0.0725346 236:0.149086 237:0.128922 238:-0.791998 239:0.830419 240:-0.507406 241:-0.798147 242:-0.56444 243:0.776762 244:0.82531 245:-0.894147 246:-0.54132 247:-0.463782 248:-0.568593 249:-0.609074 250:-0.614725 251:-0.548662 252:-0.422074 253:-0.0615322 254:-0.957385 255:0.23283 256:1 257:-1 258:-0.135383 259:-0.255017 260:-0.464376 261:-0.0976485 262:-0.0648126 263:-0.791334 264:0.490335 265:-0.174626 266:0.685387 267:-0.327624 268:0.207936 269:-0.616596 270:-0.371746 271:-0.596127 272:-1 273:0.0316569 274:-0.452627 275:-0.42697 276:0.398946 277:-0.9805 278:0.273364 279:0.803871 280:0.170882 281:-0.81465 282:-0.726724 283:-0.31023 284:0.169612 285:-0.931671 286:-0.489354 287:-0.279419 288:-0.530711 289:1 290:-0.207774 291:0.433908 292:-0.560855 293:-0.675493 294:-0.717371 295:-0.162897 296:-0.560712 297:-0.653252 298:-0.972349 299:-0.188141 300:0.510825 301:-0.536874 302:-0.16754 303:1 304:-0.121395 305:-0.298061 306:-0.49318 307:-0.347244 308:-0.473801 309:-0.718337 310:-0.864215 311:-0.446751 312:-0.466265 313:0.361892 314:-0.391269 315:-0.281971 316:-0.286218 317:0.0237231 318:-0.709816 319:-0.14695 320:-0.904734 321:-0.0660973 322:0.0366732 323:-0.812079 324:-0.430875 325:-0.579262 326:-0.78956 327:-0.0891054 328:-0.718572 329:-0.178892 330:0.0723599 331:-0.409766 332:0.759576 333:-0.0822141 334:-0.662434 335:0.455967 336:-0.704845 337:-0.384985 338:0.0842085 339:-0.272727 340:-0.99208 341:-0.57426 342:-0.785419 343:-0.439335 344:-0.406089 345:-0.681496 346:-0.23497 347:-0.0641053 348:0.218297 349:-0.306607 350:-0.0817168 351:0.131555 352:-0.56076 353:-0.0614507 354:-0.471597 355:-0.606459 356:0.0934166 357:0.700279 358:-0.0495388 359:-0.815325 
17.842208713037021 93.449771461791926 0:0.349946 1:-0.631597 2:-0.390909 3:-0.728387 4:-0.93116 5:0.173575 6:-0.494166 7:-0.172057 8:-0.79753 9:-0.0466045 10:-0.54953 11:-0.988008 12:0.288517 13:-0.0571224 14:-0.154034 15:0.48242 16:-1 17:-0.96801 18:-0.832558 19:-0.0506408 20:-0.0666143 21:0.662742 22:-0.969565 23:-0.311211 24:-0.594907 25:-0.971014 26:-0.683884 27:-0.362182 28:-0.477038 29:-0.193897 30:-0.986356 31:-0.768144 32:-0.832998 33:-1 34:-0.148626 35:-0.633735 36:-0.698452 37:-0.801465 38:-0.573885 39:-0.868849 40:-0.728363 41:1 42:-0.547417 43:-0.96654 44:-0.499511 45:0.0491078 46:-0.539786 47:-0.516073 48:-0.434384 49:0.965133 50:-1 51:0.22279 52:-0.188948 53:-0.330273 54:-0.205979 55:1 56:-0.449767 57:-0.81033 58:-0.205682 59:-0.813605 60:1 61:-0.737297 62:-0.80494 63:0.182647 64:-0.129483 65:-0.603325 66:-0.554427 67:-0.620585 68:-1 69:-0.48659 70:-0.867647 71:-0.829828 72:0.3854 73:-0.041907 74:-0.900188 75:-0.163948 76:-0.511277 77:0.792214 78:-0.0267439 79:-0.656465 80:-0.00926186 81:-0.442176 82:0.497178 83:-0.0601901 84:-0.890783 85:-0.478279 86:-0.308162 87:-1 88:0.492621 89:-0.701278 90:-0.915497 91:0.812136 92:-0.508513 93:0.195777 94:-0.444352 95:1 96:-0.814867 97:-1 98:0.308824 99:-0.402439 100:-0.546259 101:-0.263923 102:1 103:-0.773411 104:-0.881576 105:1 106:-0.472459 107:-0.996159 108:0.855664 109:0.0766796 110:0.633712 111:-0.453007 112:-0.32426 113:-0.383436 114:-1 115:1 116:-0.699892 117:-0.0270873 118:-0.0225534 119:-0.260622 120:-0.977944 121:-0.578306 122:-0.0170628 123:0.53106 124:-0.558515 125:-0.651566 126:0.112789 127:-1 128:0.547296 129:-0.789153 130:-0.962733 131:1 132:0.538462 133:-0.587758 134:-0.721372 135:1 136:-0.376231 137:-0.37385 138:-0.0608728 139:0.489974 140:-0.24434 141:-0.616409 142:-0.605744 143:0.806508 144:-0.21261 145:-0.933238 146:0.186556 147:-0.976967 148:0.139372 149:0.326489 150:-0.627457 151:-0.645177 152:-0.20835 153:-0.417485 154:-0.56777 155:1 156:-0.258968 157:-0.220212 158:0.162474 159:-0.536338 160:0.633368 161:-0.966327 162:-0.387046 163:-0.7145 164:0.91069 165:1 166:-0.126577 167:-0.00756671 168:-1 169:0.492368 170:-0.762386 171:-1 172:-0.178136 173:-0.611354 174:0.377938 175:-0.042885 176:-0.386615 177:-0.883743 178:-0.698985 179:-0.494187 180:-0.752001 181:-0.728657 182:-0.875278 183:-0.0558623 184:-0.548492 185:0.568607 186:-0.0860504 187:-0.911426 188:-0.894928 189:-0.567861 190:0.814869 191:-0.41142 192:-0.81773 193:-0.728586 194:-0.27829 195:-0.180669 196:-0.45287 197:0.352584 198:-0.267188 199:-0.692848 200:0.364397 201:-0.759611 202:-0.661369 203:-0.674145 204:0.522004 205:-0.366747 206:-0.954821 207:-0.645175 208:-0.392516 209:-0.305449 210:-0.959857 211:-0.75342 212:0.720078 213:-0.421346 214:0.754592 215:-0.646766 216:1 217:0.00442723 218:-0.170623 219:-0.106597 220:0.182221 221:-0.722804 222:-0.432972 223:-0.0785021 224:-0.0784024 225:-0.450305 226:-0.150639 227:0.227071 228:-0.674716 229:0.481761 230:-0.430877 231:-0.48141 232:-0.0691253 233:-0.657596 234:-0.307181 235:-0.178018 236:-0.834089 237:-0.0838235 238:-0.578695 239:0.320615 240:-0.232369 241:0.74577 242:0.0938299 243:-0.414273 244:0.077544 245:-0.313057 246:-0.809867 247:-0.28595 248:0.569684 249:-0.379516 250:-0.949857 251:-0.720909 252:0.388629 253:0.94621 254:-0.984611 255:-0.937061 256:-0.246842 257:-0.927803 258:-0.283177 259:-0.212936 260:-0.542039 261:-0.748505 262:1 263:-0.698876 264:-0.0802044 265:-0.516352 266:0.32659 267:-0.666202 268:0.267455 269:-0.539383 270:0.865165 271:-0.417345 272:-0.842564 273:-0.454307 274:-0.768754 275:0.313009 276:0.894157 277:-0.901618 278:0.760737 279:0.760737 280:1 281:-1 282:-1 283:-0.349309 284:0.265489 285:-1 286:-0.336764 287:0.55984 288:0.0290469 289:0.0445616 290:1 291:0.83944 292:-0.207936 293:-0.882817 294:-0.927204 295:0.3361 296:-0.967017 297:-0.674501 298:-0.980078 299:-0.102166 300:0.307702 301:0.0367904 302:0.0507862 303:0.664885 304:0.669573 305:0.189849 306:-0.432651 307:0.977773 308:0.303567 309:-0.526324 310:-0.64105 311:-0.840446 312:0.636912 313:0.0911958 314:-0.366381 315:0.0361822 316:-0.604006 317:0.0934971 318:-0.695247 319:-0.487281 320:-0.549465 321:-0.0675826 322:0.0877538 323:-0.894309 324:-0.684259 325:1 326:-0.658287 327:-0.410097 328:0.252766 329:-0.492258 330:-0.226537 331:0.216561 332:0.523227 333:0.0980871 334:-0.594452 335:-0.236146 336:-0.772919 337:-0.00133583 338:0.589078 339:-0.133542 340:-0.983217 341:-0.139941 342:-0.93546 343:-0.940684 344:-0.00343053 345:-0.494467 346:0.12418 347:0.630909 348:-0.18867 349:-0.21404 350:-0.137602 351:-0.171475 352:-0.871802 353:-0.323227 354:-0.0199843 355:-0.822625 356:0.0668748 357:0.472609 358:-0.350871 359:-0.667201 
26.253929235794399 0 0:0.108342 1:0.773488 2:-0.613636 3:-0.0880863 4:-0.814879 5:1 6:-0.405006 7:-0.719247 8:-0.546636 9:-0.778074 10:-0.546095 11:-1 12:-0.745096 13:-0.866635 14:-1 15:0.0954846 16:-0.827285 17:-0.356352 18:1 19:-1 20:-0.458971 21:-0.823812 22:-0.697101 23:-0.470965 24:-0.229763 25:-0.94154 26:-0.803935 27:-0.782941 28:0.0503186 29:-0.38086 30:-0.908492 31:-0.600235 32:-0.438632 33:-1 34:0.197955 35:-0.702579 36:-0.795977 37:-0.862241 38:-0.0662136 39:-0.757515 40:-0.270111 41:-0.511384 42:-0.0268149 43:-0.977505 44:-1 45:-0.82378 46:-0.986684 47:0.0230939 48:-0.354084 49:-0.841646 50:-0.337711 51:-0.368959 52:0.868825 53:0.8 54:-0.709021 55:-0.839438 56:-0.443196 57:1 58:-0.751515 59:-0.809482 60:-0.353153 61:1 62:-0.271058 63:-0.767282 64:-1 65:-0.532542 66:-0.282767 67:-0.405298 68:-0.966747 69:0.297457 70:1 71:-0.618957 72:-0.562009 73:-0.249135 74:-0.390846 75:-1 76:-0.6717 77:-0.0750469 78:1 79:1 80:-0.451866 81:-0.6466 82:-0.146466 83:-0.747473 84:-0.0957201 85:-0.794334 86:-0.535258 87:-0.948234 88:-0.051057 89:-0.372822 90:-0.924313 91:-0.432731 92:-0.745971 93:-0.785797 94:-0.227561 95:-0.0944279 96:0.0165189 97:-1 98:-0.120798 99:-0.923465 100:0.393403 101:-0.528556 102:-0.219823 103:-0.347368 104:-0.946966 105:-0.539287 106:-0.536074 107:-0.958008 108:-0.133683 109:-0.957704 110:-0.702891 111:-0.778768 112:-1 113:-0.52045 114:-0.983024 115:-0.462557 116:-0.496208 117:-0.173379 118:-0.562267 119:0.192025 120:-0.955517 121:-0.206581 122:-0.66979 123:-0.382857 124:-0.674672 125:-0.453859 126:0.49525 127:-1 128:-0.341407 129:0.0201097 130:-0.924838 131:-0.720908 132:-0.797923 133:0.2 134:-0.866724 135:-0.292776 136:-0.978551 137:-0.326798 138:-0.678217 139:0.198344 140:-0.336321 141:-0.605868 142:-0.668882 143:0.456412 144:-0.338706 145:-0.597615 146:-0.240713 147:-0.814761 148:-0.213205 149:-1 150:-0.213846 151:-0.114286 152:-1 153:1 154:0.394129 155:-0.482286 156:-0.502052 157:-0.904746 158:0.708595 159:-0.745128 160:-0.44613 161:-0.864497 162:0.501997 163:-0.546625 164:-0.0939107 165:-0.379885 166:-0.466539 167:1 168:-0.841513 169:-0.806039 170:-0.434024 171:-0.71237 172:-0.745128 173:0.044292 174:-0.537186 175:-0.847953 176:-1 177:1 178:-0.859968 179:-0.814638 180:1 181:-0.421177 182:-0.497146 183:-0.637545 184:-0.848411 185:-0.256054 186:-0.0773109 187:1 188:1 189:1 190:-0.804817 191:-0.0283065 192:1 193:0.801547 194:-0.127064 195:-0.316849 196:-0.726569 197:-0.273122 198:-0.221893 199:-0.484384 200:1 201:-0.224641 202:-0.204156 203:-0.684515 204:-1 205:-0.392024 206:-0.62079 207:-0.642613 208:0.136383 209:-0.466539 210:0.507672 211:-0.315325 212:-0.0268149 213:1 214:0.0249816 215:-0.439469 216:-0.834578 217:-0.178749 218:-0.628578 219:-0.333174 220:-0.482692 221:0.768213 222:-0.285714 223:-0.69043 224:-0.862426 225:-0.0340122 226:-0.917732 227:-0.508985 228:-0.927164 229:-0.00251572 230:-0.660171 231:0.0837958 232:1 233:-0.893815 234:-0.462434 235:-0.8051 236:0.352451 237:-0.863235 238:-0.521393 239:0.0349762 240:-0.416969 241:0.311845 242:0.0273823 243:-0.01349 244:-0.51744 245:-0.128365 246:-0.31403 247:-0.72014 248:-0.466303 249:-0.772616 250:-0.814027 251:1 252:-0.253512 253:-0.772616 254:-0.958717 255:0.666171 256:-0.827368 257:-0.709476 258:-0.808669 259:-0.829729 260:-1 261:0.200478 262:-0.839178 263:-0.0389775 264:-0.688514 265:1 266:-1 267:-0.800438 268:-0.361312 269:-0.628578 270:-0.565955 271:-0.84339 272:-0.852975 273:1 274:-0.604955 275:-0.490247 276:-0.457854 277:-0.565509 278:0.337143 279:-0.382857 280:-0.726016 281:-0.896002 282:0.308061 283:-0.537143 284:-0.886654 285:-0.886434 286:0.782115 287:0.257386 288:-0.467776 289:0.0694777 290:0.0557276 291:-0.722342 292:-0.46776 293:0.257465 294:-0.804334 295:-0.716504 296:-0.0901926 297:-0.849968 298:-0.986606 299:-0.602281 300:-0.487469 301:-0.929083 302:-0.495753 303:-0.552646 304:-0.157165 305:-1 306:-0.991475 307:-0.367203 308:-0.663838 309:-1 310:-0.605375 311:-0.463668 312:0.0350104 313:-0.706702 314:-0.871889 315:-0.477854 316:-0.361373 317:-0.792074 318:-0.791259 319:-0.448753 320:-0.58552 321:-0.316004 322:-0.360511 323:-0.567247 324:-0.8727 325:0.182054 326:-0.591919 327:-0.318158 328:1 329:-0.545232 330:-0.520275 331:-0.585987 332:-0.204156 333:-0.57265 334:0.417074 335:-0.101862 336:-0.648696 337:-0.850922 338:-0.808669 339:-1 340:-0.57458 341:-0.669822 342:-0.84481 343:-0.420535 344:-0.679674 345:-0.691235 346:-1 347:-0.949061 348:0.816702 349:-0.42395 350:-0.508091 351:-0.41644 352:-0.627548 353:-0.454279 354:-0.757356 355:-0.380212 356:-0.102264 357:-0.498607 358:-0.368637 359:-0.642193 
132.90506236890195 141.25233820596429 0:0.326472 1:-0.318046 2:-0.611157 3:0.240399 4:-0.837605 5:0.267703 6:-0.531665 7:-0.124337 8:-0.721482 9:-0.16245 10:-0.668113 11:-0.957623 12:-0.243765 13:-0.268403 14:-0.601059 15:-0.0387293 16:-0.654571 17:-0.830514 18:-0.283005 19:-0.124101 20:-0.268944 21:-0.543248 22:-0.128986 23:-0.0713439 24:-0.266908 25:-0.931622 26:-0.87093 27:-0.455684 28:-0.49154 29:-0.524549 30:-0.991997 31:0.0878776 32:-0.556539 33:-1 34:0.720639 35:-0.370424 36:-0.693821 37:-0.048465 38:-0.509422 39:-0.67446 40:-0.359494 41:0.0722417 42:0.174188 43:-0.97041 44:-0.593405 45:-0.42018 46:-0.315362 47:-0.375189 48:-0.659223 49:-0.0610169 50:-0.358491 51:-0.283694 52:-0.111359 53:0.427792 54:-0.148618 55:-0.252084 56:-0.422445 57:-0.681658 58:-0.736364 59:-0.55734 60:0.0940265 61:-0.638625 62:-0.400887 63:1 64:0.188065 65:0.84038 66:-0.0244367 67:0.118453 68:-0.9854 69:0.0954371 70:-0.364973 71:-0.130565 72:-0.0871272 73:0.317955 74:-0.300815 75:-0.289 76:0.10453 77:-0.333959 78:0.0463193 79:-0.189964 80:0.477407 81:-0.920682 82:0.260683 83:-0.224317 84:-0.0333866 85:-0.183631 86:-0.422265 87:-0.58805 88:-0.333865 89:-0.0857143 90:-0.916989 91:0.100521 92:-0.331148 93:-0.388868 94:-0.16211 95:0.065504 96:-0.515713 97:-0.881833 98:-0.163866 99:-0.45164 100:-0.118262 101:0.385598 102:0.369271 103:-0.73271 104:-0.755643 105:-0.325994 106:-0.279545 107:-0.280758 108:0.404651 109:-0.378507 110:-0.439855 111:-0.575056 112:-0.203254 113:-0.0477164 114:-0.97767 115:0.238141 116:-0.425063 117:-0.52866 118:-0.279859 119:-0.476857 120:-0.902423 121:-0.154581 122:-0.541178 123:-0.00718894 124:-0.588646 125:-0.315157 126:0.550792 127:-0.994959 128:0.72061 129:-0.627057 130:-0.923042 131:-0.504573 132:0.00404858 133:-0.392556 134:-0.556179 135:-0.31711 136:-0.0199168 137:0.218519 138:0.529125 139:0.301656 140:0.491038 141:-0.654116 142:-0.622122 143:0.107708 144:0.567196 145:-0.670988 146:0.332698 147:-0.0186537 148:-0.176126 149:0.00570386 150:-0.381832 151:-0.730891 152:0.224724 153:-0.313075 154:-0.337081 155:-0.034775 156:-0.213279 157:0.0450666 158:-0.715933 159:-0.676918 160:0.0868201 161:-0.722519 162:-0.659837 163:-0.70925 164:0.524222 165:0.133914 166:0.357553 167:-0.658702 168:-0.902636 169:-0.341065 170:-0.693971 171:-0.182936 172:0.155603 173:-0.541485 174:0.286149 175:-0.19883 176:-0.131925 177:-0.451532 178:-0.627365 179:-0.728934 180:-0.502807 181:-0.712672 182:-0.83815 183:-0.443326 184:-0.268134 185:0.383479 186:-0.379496 187:-0.174674 188:-0.607708 189:-0.518844 190:0.0609424 191:-0.0322108 192:-0.785108 193:-0.580913 194:0.0641404 195:-0.23574 196:-0.389052 197:-0.096396 198:-0.152871 199:-0.0497135 200:-0.195341 201:-0.603057 202:-0.0521597 203:-0.616911 204:0.187734 205:-0.199826 206:-0.80031 207:0.411614 208:-0.135967 209:0.521511 210:-0.409244 211:-0.0825974 212:0.601482 213:-0.268817 214:0.439383 215:0.172056 216:0.124758 217:0.298838 218:0.0867539 219:-0.00525813 220:0.0329549 221:-0.682922 222:-0.182464 223:0.0185853 224:-0.275641 225:-0.426477 226:-0.637947 227:0.808168 228:-0.232998 229:0.111111 230:-0.142509 231:-0.150666 232:-0.565604 233:-0.829115 234:-0.146277 235:-0.00221213 236:0.556693 237:0.020098 238:-0.568093 239:0.0381558 240:-0.504071 241:-0.324738 242:-0.0774005 243:-0.00217581 244:-0.223407 245:-0.5051 246:-0.677022 247:-0.684173 248:-0.28855 249:-0.634067 250:-0.645827 251:-0.561205 252:0.146488 253:0.247351 254:-0.972848 255:-0.17627 256:-0.283158 257:-0.532454 258:-0.440137 259:-0.167349 260:-0.52646 261:-0.318055 262:-0.428053 263:-0.7781 264:-0.631637 265:-0.254009 266:0.564014 267:-0.513643 268:-0.1591 269:0.0867539 270:-0.128693 271:-0.209655 272:-0.641863 273:-0.122447 274:-0.00940583 275:-0.300415 276:0.83477 277:-0.842508 278:0.670046 279:0.489401 280:-0.323641 281:-0.983799 282:-0.372631 283:-0.458433 284:0.0940483 285:-0.840912 286:-0.174592 287:-0.264397 288:0.0320726 289:-0.237422 290:0.263502 291:-0.136135 292:-0.392598 293:-0.517183 294:-0.896977 295:-0.148708 296:-0.791594 297:-0.420798 298:-1 299:-0.261345 300:-0.260989 301:-0.718662 302:-0.203326 303:0.374131 304:0.25285 305:-0.345463 306:-0.0814152 307:-0.111363 308:-0.473309 309:-0.401467 310:-0.826811 311:0.035371 312:0.41943 313:-0.227858 314:-0.364341 315:0.832813 316:-0.626323 317:0.0828914 318:-0.664676 319:-0.425537 320:-0.619815 321:-0.591905 322:0.0422397 323:-0.142625 324:-0.888213 325:0.116251 326:-0.574733 327:-0.241453 328:-0.119511 329:-0.251834 330:-0.158046 331:0.102972 332:-0.101874 333:-0.407 334:-0.42606 335:-0.267878 336:-0.829814 337:-0.0841571 338:0.401566 339:-0.407524 340:-0.338865 341:-0.0218935 342:-0.779903 343:-0.617139 344:0.740137 345:-0.539398 346:-0.00708847 347:0.154759 348:-0.0434641 349:-0.494494 350:-0.0244246 351:0.0618762 352:-0.289097 353:0.317033 354:-0.579858 355:-0.790841 356:-0.662243 357:0.231198 358:-0.461906 359:-0.450465 
11.551245062892766 58.864600788082754 0:-0.352835 1:-0.304673 2:0.0599174 3:-0.246936 4:-0.617815 5:-0.424439 6:-0.882318 7:-0.416755 8:-0.500812 9:0.182867 10:-0.768619 11:-0.970481 12:-0.175949 13:-0.204828 14:-0.374083 15:-0.451722 16:-0.627316 17:-0.567056 18:-0.702326 19:-0.308847 20:-0.726214 21:-0.329844 22:0.236232 23:-0.0291538 24:-0.75073 25:-0.96424 26:-0.760131 27:-0.387783 28:0.276203 29:0.56172 30:-1 31:-0.754806 32:0.235815 33:-1 34:0.478594 35:-0.203827 36:-0.600347 37:-0.586099 38:-0.740912 39:-0.622356 40:-0.107042 41:-0.215412 42:0.897101 43:-0.95872 44:-0.382143 45:0.0506869 46:-0.683988 47:-0.310897 48:-0.773325 49:0.240194 50:-0.66204 51:-0.0392927 52:1 53:-0.0473945 54:-0.0213801 55:-0.285621 56:-0.33806 57:-0.0287421 58:0.16553 59:-0.965499 60:-0.416759 61:0.510858 62:-0.682711 63:-0.398743 64:0.668765 65:0.142043 66:-0.532847 67:-0.454324 68:-0.923721 69:-0.552072 70:0.586898 71:-0.300738 72:0.104788 73:-0.409458 74:-0.646897 75:-0.18235 76:-0.297117 77:-0.772514 78:-0.505928 79:-0.57651 80:0.293012 81:-0.725594 82:-0.158291 83:-0.0734651 84:-0.822056 85:-0.0812172 86:-0.857857 87:-0.469763 88:-0.755485 89:-0.447619 90:-0.479281 91:-0.503218 92:-0.48739 93:-0.21382 94:-0.509528 95:0.183752 96:-0.48892 97:-1 98:-0.596639 99:-0.198907 100:-0.553768 101:-0.222774 102:0.272332 103:-0.720546 104:-0.416148 105:-0.225265 106:-0.222136 107:-0.332224 108:0.167292 109:-0.676306 110:-0.210119 111:-0.584855 112:-0.697041 113:-0.218473 114:-0.984423 115:0.602215 116:-0.167931 117:-0.314193 118:-0.598353 119:-0.0887728 120:-0.918367 121:-0.479992 122:-0.646513 123:0.132166 124:-0.6131 125:-0.642058 126:-0.251644 127:-0.989422 128:-0.738985 129:-0.583993 130:-0.908046 131:-0.2731 132:-0.477909 133:-0.915302 134:-0.46474 135:0.297845 136:0.549573 137:0.0806816 138:-0.442218 139:0.868788 140:-0.159906 141:-0.582831 142:-0.817707 143:0.692361 144:-0.271865 145:-0.603319 146:-0.16424 147:0.0462287 148:0.120507 149:0.16815 150:-0.645448 151:1 152:-0.285305 153:-0.521272 154:0.385384 155:-0.613128 156:-0.268963 157:0.135883 158:-0.428022 159:-0.558364 160:-0.518305 161:-1 162:1 163:-0.744 164:-0.0300406 165:-0.241341 166:-0.0210325 167:0.0195141 168:-0.883663 169:-0.492501 170:-0.999152 171:0.484352 172:-0.298417 173:-0.201497 174:0.273984 175:-0.560104 176:-0.168267 177:0.261354 178:-0.605986 179:-0.433064 180:-0.388365 181:-0.831498 182:-0.75392 183:-0.667424 184:-0.165444 185:-0.510905 186:-0.858487 187:-0.737947 188:0.467724 189:0.361156 190:-0.2 191:-0.526598 192:-0.550761 193:-0.779075 194:-0.11003 195:-0.769411 196:-0.011749 197:-0.221884 198:-0.308709 199:0.324339 200:0.376344 201:-0.525706 202:0.251426 203:-0.568252 204:-0.651217 205:0.00414034 206:-0.833039 207:-0.562767 208:-0.404158 209:0.957457 210:0.136157 211:-0.387013 212:0.116198 213:0.223019 214:0.316312 215:-0.0820896 216:-0.447856 217:0.0154953 218:-0.431995 219:0.101338 220:-0.404874 221:-0.40612 222:-0.0961408 223:0.703745 224:-0.621302 225:-0.791446 226:-0.184732 227:0.132322 228:-0.398512 229:0.329979 230:-0.454324 231:-0.00582686 232:0.673832 233:-0.64288 234:-0.183511 235:-0.4635 236:-0.524506 237:-0.121569 238:-0.380033 239:-0.18601 240:-0.475821 241:-0.539887 242:0.393574 243:1 244:0.0331508 245:-0.858862 246:-0.883062 247:-0.193093 248:-0.191712 249:-0.721815 250:-0.532847 251:-0.254788 252:0.712375 253:-0.165444 254:-1 255:-0.460344 256:0.226316 257:-0.822284 258:0.524537 259:-0.366842 260:-0.727835 261:-0.326823 262:-0.489964 263:-0.535896 264:-0.0779827 265:0.100797 266:0.0902316 267:-0.225254 268:0.0740176 269:0.589971 270:0.0403627 271:0.0774628 272:-0.87362 273:-0.143949 274:-0.775178 275:-0.618492 276:0.445402 277:-0.878665 278:0.320922 279:0.320922 280:-0.0252892 281:-0.978922 282:-0.340137 283:-0.669677 284:-0.271989 285:-0.910472 286:-0.545777 287:-0.615423 288:-0.530408 289:-0.632008 290:0.0564155 291:0.239224 292:0.0740176 293:0.00957746 294:-0.74872 295:-0.205461 296:-0.55108 297:-0.879588 298:-0.963132 299:-0.304675 300:-0.395355 301:-0.696354 302:0.110067 303:-0.452699 304:0.43662 305:0.314819 306:-0.138107 307:-0.303243 308:-0.540467 309:0.00114099 310:-0.798837 311:-0.507882 312:0.0683979 313:-0.0580815 314:-0.482252 315:0.597006 316:-0.560515 317:-0.324309 318:-0.640793 319:-0.683873 320:-0.707753 321:0.0649833 322:0.089391 323:-0.507317 324:-0.805323 325:0.0715852 326:-0.765975 327:-0.972896 328:0.139625 329:0.147107 330:0.173521 331:-0.511146 332:-0.0611247 333:-0.316239 334:1 335:-0.0581743 336:-0.307329 337:0.504141 338:0.231239 339:0.269592 340:-0.425042 341:-0.16716 342:-0.720511 343:-0.630256 344:-0.310034 345:-0.263612 346:0.0511945 347:1 348:1 349:-0.295251 350:0.00231179 351:-0.297405 352:-0.671611 353:-0.2489 354:0.334068 355:-0.69378 356:0.177205 357:-0.0833798 358:-0.256577 359:-0.67169 
56.242346302676673 55.663006219065863 0:0.888769 1:-1 2:-0.340083 3:0.196601 4:-0.913245 5:-0.852332 6:-0.926798 7:-0.331124 8:-0.830029 9:-0.360408 10:0.701735 11:-1 12:-0.978906 13:1 14:-0.786879 15:0.120114 16:0.0267953 17:-1 18:-0.630769 19:-0.858393 20:-0.714697 21:-0.235935 22:-0.107729 23:0.23963 24:-0.368532 25:-0.671241 26:-1 27:0.575344 28:1 29:0.16061 30:-0.965693 31:1 32:-0.579074 33:-1 34:0.0461342 35:-1 36:1 37:0.0830606 38:-1 39:-0.0278334 40:-0.543928 41:-0.542032 42:-1 43:-1 44:-0.72726 45:0.156166 46:0.349464 47:-0.778345 48:-0.844907 49:-0.993705 50:-0.477018 51:-0.0129666 52:-0.708066 53:-0.480893 54:1 55:-0.610867 56:-0.226353 57:-0.88974 58:0.793561 59:-0.446458 60:-0.690819 61:-0.338393 62:-1 63:0.999595 64:-0.293731 65:0.543943 66:-0.681371 67:0.751827 68:-1 69:-0.0794148 70:-0.0726381 71:1 72:0.0262951 73:-0.597847 74:-0.373542 75:-0.591803 76:0.0256913 77:-0.0262664 78:-0.279018 79:-0.567411 80:0.174291 81:-0.717475 82:-0.137329 83:0.735707 84:-1 85:0.0543547 86:-0.419212 87:1 88:-0.120862 89:-0.55122 90:-1 91:-0.486362 92:1 93:0.405374 94:-0.208506 95:-0.561889 96:-0.896857 97:-0.831833 98:-0.45063 99:0.923886 100:0.299544 101:0.0773324 102:-0.0250117 103:-0.592203 104:-0.900585 105:-0.280308 106:-0.734678 107:0.291768 108:-0.510578 109:-0.365847 110:-1 111:0.515367 112:-0.226331 113:-0.199727 114:-1 115:0.259331 116:-0.244493 117:-0.40002 118:0.0256913 119:-0.131023 120:-1 121:0.0623603 122:-0.174672 123:-0.228756 124:1 125:-0.561242 126:-0.490378 127:-1 128:-0.836709 129:-0.256348 130:-0.953035 131:-0.336172 132:-0.000176025 133:-0.134822 134:0.907699 135:-0.734854 136:0.822281 137:0.104208 138:-0.521633 139:0.00043592 140:-0.879245 141:-1 142:-0.503442 143:0.274056 144:0.487556 145:-1 146:-0.288339 147:-0.939335 148:1 149:0.909195 150:-0.991395 151:-0.61685 152:0.0560786 153:0.304036 154:0.0889028 155:-0.937188 156:-0.253257 157:-0.285763 158:-0.229909 159:-0.6284 160:0.866632 161:-1 162:-0.273485 163:-1 164:-1 165:-0.225042 166:1 167:-0.583433 168:-0.881163 169:-0.792175 170:1 171:-0.647541 172:-0.044458 173:-0.673737 174:-0.13243 175:-0.37232 176:0.390752 177:-0.531388 178:-0.874933 179:-0.65253 180:-0.625134 181:-0.868 182:-0.811475 183:0.0191621 184:0.42081 185:-0.675425 186:-0.675294 187:-0.955372 188:-0.911793 189:-0.516301 190:0.0420942 191:0.00536847 192:-0.693973 193:-1 194:1 195:-0.663201 196:-0.4753 197:0.589666 198:-0.14694 199:-0.0334504 200:-0.062724 201:-0.757758 202:-0.573757 203:0.434839 204:-0.151217 205:-0.544127 206:-0.971566 207:-0.106746 208:-0.168399 209:1 210:-0.899064 211:0.264069 212:0.59625 213:-1 214:-0.807862 215:-0.165008 216:0.438451 217:-0.680686 218:-0.0716663 219:1 220:-0.96566 221:0.437315 222:0.634733 223:-0.419695 224:-0.484221 225:0.917312 226:-0.0650361 227:-0.2 228:0.0922856 229:-0.075891 230:0.114799 231:0.0158158 232:-0.254262 233:-0.734602 234:0.186503 235:-0.512865 236:-0.739576 237:-1 238:-0.759182 239:0.385798 240:-0.512898 241:-0.419017 242:0.523549 243:-1 244:-1 245:-0.903887 246:0.972661 247:-0.250555 248:-0.398037 249:-0.00543331 250:-0.681371 251:-0.414268 252:-1 253:0.0656072 254:-1 255:0.665745 256:0.530526 257:0.633808 258:-0.236204 259:0.569453 260:-0.776403 261:0.214029 262:-0.603144 263:-0.715555 264:1 265:-0.343966 266:0.948895 267:0.421629 268:-0.0022892 269:-0.0716663 270:-0.158233 271:-0.119282 272:0.398797 273:0.124597 274:-0.765084 275:-0.608202 276:-0.892241 277:-1 278:0.7353 279:0.7353 280:-0.0549811 281:-0.95375 282:-0.868777 283:-1 284:-0.150112 285:-0.236455 286:-0.25763 287:0.309464 288:-0.436309 289:0.628893 290:-0.100447 291:-0.572198 292:-1 293:-1 294:-0.669893 295:-0.0445723 296:-0.538237 297:0.137798 298:-0.92468 299:-1 300:-0.313738 301:-0.162977 302:0.134285 303:-0.440941 304:0.357031 305:0.352167 306:1 307:-0.051032 308:-0.882657 309:-0.318011 310:-0.835612 311:-0.39677 312:0.212613 313:0.0996058 314:-1 315:0.631316 316:-1 317:-0.0136757 318:-0.691426 319:-0.483329 320:0.83497 321:-0.290382 322:0.712508 323:-0.308246 324:-0.840913 325:-0.527418 326:-0.617515 327:0.466076 328:-0.403285 329:-1 330:-0.400487 331:-0.21603 332:0.918093 333:-0.828246 334:-0.182653 335:-0.759485 336:-0.744099 337:-0.161635 338:-0.236204 339:-0.847022 340:-0.410334 341:0.702071 342:-0.473016 343:-1 344:0.277015 345:-0.189686 346:-0.194539 347:-0.753507 348:0.362201 349:0.259807 350:-0.550307 351:-0.0876429 352:-0.706306 353:-0.488509 354:-0.208812 355:-1 356:-0.193339 357:-0.835469 358:-0.237786 359:-0.664636 
27.816518446552145 9.7549831400210252 0:-0.229325 1:-0.434778 2:-0.538843 3:-0.215231 4:-0.690139 5:0.313472 6:-0.547821 7:0.110286 8:-0.392915 9:-0.691966 10:-0.180043 11:-0.984606 12:-0.290882 13:0.08413 14:-0.456398 15:1 16:-0.60098 17:-0.630729 18:-0.557066 19:-0.598312 20:-0.633818 21:0.248147 22:-0.340097 23:0.517895 24:-0.96963 25:-0.813655 26:1 27:0.165438 28:0.343002 29:-0.259917 30:-1 31:-0.943115 32:0.0736419 33:-1 34:-0.2023 35:1 36:-0.115034 37:-0.552439 38:-0.720935 39:-0.717212 40:-0.418356 41:0.168126 42:-0.418356 43:-1 44:0.179265 45:0.0955313 46:-0.829165 47:0.0340026 48:-0.920006 49:0.174334 50:-0.817804 51:-0.302554 52:-0.40441 53:-0.205459 54:-0.814358 55:-0.25096 56:-0.94259 57:-0.681237 58:-0.880303 59:-0.196485 60:0.129701 61:-0.662661 62:-0.486384 63:-0.359416 64:-0.276211 65:-0.434679 66:-0.329102 67:-0.187576 68:-1 69:-0.239289 70:-1 71:0.0202131 72:0.0470958 73:0.0257593 74:-0.55837 75:-0.574237 76:-0.581487 77:1 78:0.544803 79:-0.411635 80:-0.475723 81:-0.60138 82:0.241064 83:-0.516971 84:-0.901438 85:0.0812172 86:1 87:-0.763425 88:0.113283 89:-0.908479 90:-0.782842 91:0.593013 92:-0.222617 93:0.0241843 94:0.766915 95:-0.546151 96:-1 97:-0.528135 98:-0.159139 99:-0.826745 100:-0.530705 101:-0.464349 102:0.823831 103:-0.250994 104:-0.923965 105:0.0279345 106:-0.0281872 107:-0.426962 108:-0.257614 109:-0.427421 110:1 111:-0.559317 112:-0.210651 113:-1 114:-1 115:-0.357573 116:-0.421813 117:-0.545095 118:0.779172 119:-0.493473 120:-0.98581 121:0.842779 122:1 123:-0.705069 124:-0.584716 125:-0.477629 126:0.819732 127:-1 128:0.732303 129:-0.674792 130:-0.976024 131:-0.740145 132:-0.7254 133:-0.646981 134:0.262885 135:-0.594423 136:-1 137:-0.275826 138:-0.405881 139:-0.325196 140:-1 141:-0.884053 142:-0.493473 143:-0.164434 144:0.517895 145:-0.894866 146:-0.346578 147:-0.928954 148:-0.51732 149:-0.147616 150:-0.72641 151:-0.478877 152:-0.2456 153:-0.501013 154:1 155:-0.580091 156:1 157:-0.453397 158:0.814116 159:-0.783394 160:-0.344665 161:-0.784038 162:-0.258725 163:-0.333 164:0.155074 165:-0.30802 166:0.122371 167:-0.468738 168:-0.727221 169:-0.713924 170:-0.201074 171:0.258942 172:-0.350183 173:-0.16781 174:0.179983 175:-0.698506 176:-0.60585 177:-0.850591 178:-0.870444 179:-0.645443 180:0.976108 181:-0.697987 182:-0.711505 183:-0.306918 184:-0.709861 185:-0.114546 186:0.232269 187:-0.795119 188:-0.842476 189:-0.259653 190:0.962723 191:-0.614446 192:-0.492539 193:-0.607471 194:-0.258126 195:-0.40339 196:-0.318558 197:0.969605 198:-0.124292 199:-0.309555 200:0.593787 201:-0.752895 202:-0.347596 203:-0.597567 204:-0.00655431 205:-0.302244 206:-0.724414 207:-0.202391 208:-0.25738 209:-0.107075 210:-0.742546 211:-1 212:-0.651188 213:0.0625249 214:-0.31374 215:0.410033 216:-0.264177 217:-0.669065 218:-0.171067 219:0.0200765 220:-0.738023 221:-0.266732 222:-0.684157 223:0.183911 224:-0.868343 225:0.521589 226:-0.239207 227:0.322754 228:-0.442893 229:-0.612998 230:-0.756395 231:-0.70394 232:0.556523 233:-0.424548 234:-0.760971 235:-0.130283 236:-0.261741 237:-0.346078 238:1 239:0.696873 240:-0.76204 241:0.565673 242:-1 243:0.0496084 244:1 245:-0.313608 246:-0.611035 247:-0.388264 248:-0.73108 249:0.522141 250:-0.837512 251:0.314817 252:-0.286288 253:0.304808 254:-0.980246 255:-1 256:-0.137895 257:-0.44429 258:0.293489 259:-0.329047 260:0.455899 261:-0.181746 262:-0.141233 263:0.0157723 264:-0.963564 265:-0.18717 266:-0.289859 267:-0.713603 268:-0.185807 269:-0.644997 270:-0.835624 271:-0.176256 272:-0.768064 273:-0.171186 274:-1 275:-0.147596 276:-0.626437 277:-0.891597 278:-0.213272 279:0.278894 280:0.513054 281:-0.997474 282:-0.864195 283:-0.557419 284:-0.0245785 285:-0.949652 286:0.325408 287:0.0686029 288:-0.743116 289:0.0867274 290:-0.26591 291:0.784842 292:-0.694773 293:0.202254 294:-0.868995 295:-0.593361 296:-0.915353 297:-0.779781 298:-0.974365 299:-0.630103 300:0.330272 301:0.30248 302:-0.42129 303:-0.00160342 304:0.509501 305:0.00454872 306:-0.319693 307:0.452484 308:-0.484871 309:-0.391035 310:-0.79035 311:-0.281815 312:0.608625 313:-0.579501 314:-0.124847 315:-0.16781 316:-0.389223 317:-0.287748 318:-1 319:-0.143245 320:-0.454199 321:-0.464909 322:0.222986 323:-0.970267 324:-0.756502 325:0.549352 326:1 327:0.403543 328:0.505364 329:-0.347596 330:0.452644 331:-0.476645 332:0.196007 333:-0.493691 334:-0.687439 335:-0.632099 336:-0.935155 337:-0.144536 338:-0.31793 339:1 340:-1 341:-0.0526627 342:-0.608532 343:-0.958027 344:1 345:-0.0551129 346:0.107902 347:0.757393 348:0.389875 349:-0.632829 350:-0.591115 351:-0.742334 352:-0.88221 353:-0.65216 354:-0.860582 355:-0.498462 356:-0.582097 357:-0.233055 358:-0.219679 359:-1 
-54.540754493733125 69.728903844286634 0:0.179126 1:-0.342904 2:-0.150826 3:0.381271 4:-0.904454 5:0.54361 6:0.331206 7:-0.551962 8:-0.875203 9:0.0989791 10:0.180586 11:-0.97786 12:-0.16274 13:-0.265535 14:-0.295436 15:0.165447 16:-0.7838 17:-0.852353 18:-0.717352 19:-0.147859 20:-0.055621 21:-0.142899 22:-0.907246 23:0.092676 24:1 25:-0.906059 26:-0.864957 27:-0.422847 28:-0.538563 29:0.491817 30:-0.962216 31:-0.578658 32:-0.613682 33:-0.988207 34:-0.420575 35:-0.589434 36:-0.340761 37:-0.306218 38:1 39:-0.4224 40:-0.329845 41:-0.158932 42:0.00501417 43:-0.96904 44:-0.0236132 45:-0.453971 46:0.0857421 47:-0.696646 48:-0.606608 49:-0.316707 50:-0.246613 51:0.0369352 52:-0.14206 53:-0.61861 54:0.0683122 55:-0.525059 56:0.548331 57:-0.905481 58:-0.876136 59:-0.770858 60:-0.646571 61:-0.0280413 62:-0.236225 63:-0.164808 64:-0.41637 65:-0.373872 66:-0.00412567 67:-0.298112 68:-0.988558 69:0.518635 70:-0.895722 71:-0.317946 72:-0.246075 73:0.550942 74:-0.341693 75:0.0598076 76:0.130025 77:-0.712008 78:-0.20568 79:-0.735318 80:0.886893 81:-0.834544 82:-0.34695 83:-0.188716 84:-0.605931 85:-0.0535152 86:-0.0399778 87:-0.686018 88:0.521739 89:0.0583043 90:-0.895829 91:-0.463684 92:-0.335336 93:-0.409981 94:-0.332505 95:-0.155891 96:-0.68191 97:-0.752894 98:-0.293592 99:-0.6291 100:-1 101:0.0734303 102:-0.224173 103:-0.940117 104:-0.744428 105:-0.0483005 106:-0.651927 107:-0.62668 108:0.417854 109:-0.731262 110:-0.0441404 111:-0.0521158 112:-0.204438 113:-0.239945 114:-1 115:0.202504 116:-0.306248 117:-0.586487 118:-0.472446 119:-0.270591 120:-1 121:-0.531586 122:-0.469573 123:0.416406 124:-0.696507 125:-0.248043 126:0.31011 127:-1 128:0.330967 129:0.0534227 130:-0.982759 131:-0.615579 132:-0.00404858 133:-0.237386 134:0.557473 135:0.557921 136:0.130663 137:-0.0731413 138:-0.154149 139:0.53531 140:0.867453 141:-0.645205 142:0.230952 143:-0.398295 144:0.092676 145:-0.694322 146:-0.477208 147:0.670397 148:0.975281 149:0.227013 150:0.644666 151:-0.906227 152:-0.127712 153:-0.760636 154:-0.280033 155:-0.0141274 156:-0.657326 157:-0.344145 158:-0.740741 159:-0.766037 160:0.285565 161:-0.657925 162:-0.733113 163:-0.639875 164:0.0397835 165:-0.430635 166:0.322371 167:-0.770609 168:-0.694501 169:-0.654202 170:-0.492261 171:-0.659463 172:-0.0642509 173:-0.0411728 174:0.168372 175:0.230669 176:-0.489142 177:-0.956992 178:-0.359273 179:-0.829919 180:-0.173814 181:-0.211227 182:-0.79225 183:-0.56317 184:-0.164901 185:0.171218 186:-0.0403361 187:-0.950849 188:-0.919045 189:-0.600231 190:-0.628482 191:-0.213763 192:-0.775161 193:0.360864 194:0.0683122 195:0.178234 196:-0.353004 197:0.250977 198:-0.653276 199:-0.218998 200:-0.196535 201:-0.555118 202:-0.687042 203:-0.631668 204:-0.141386 205:0.255611 206:-0.989562 207:-0.507686 208:0.0220374 209:0.101816 210:-0.962945 211:-0.386667 212:0.507739 213:-0.464357 214:0.481999 215:-0.293532 216:0.721715 217:0.334809 218:-0.232749 219:0.928298 220:0.0744946 221:-0.00138203 222:0.424848 223:0.172261 224:-0.621302 225:-0.178411 226:0.338151 227:1 228:-0.197755 229:-0.447379 230:0.111449 231:-0.0940622 232:-0.404744 233:-0.658865 234:-0.501995 235:-0.37385 236:-0.299488 237:0.0357843 238:-0.524927 239:0.323264 240:-0.337126 241:-0.101128 242:-0.493611 243:-0.893386 244:-0.335255 245:0.270789 246:0.294644 247:-0.614674 248:-0.526281 249:-0.58245 250:-0.247858 251:-0.74174 252:0.413378 253:0.095762 254:-1 255:-0.459919 256:-0.00894737 257:0.200278 258:-0.574566 259:-0.441262 260:-0.727606 261:-0.709047 262:-0.598065 263:-0.825961 264:0.662742 265:-0.690171 266:0.0226244 267:0.0555666 268:-0.267074 269:-0.488351 270:-0.258263 271:-0.191412 272:-0.137959 273:-0.63278 274:-0.892636 275:-0.382123 276:0.722701 277:-0.28465 278:0.699539 279:-0.079447 280:-0.575305 281:-0.856197 282:-0.686732 283:-0.327189 284:-0.14158 285:-0.849619 286:-0.0457771 287:-0.711567 288:-0.181241 289:-0.263776 290:0.123151 291:-0.219828 292:-0.486837 293:-0.0259155 294:-0.811417 295:-0.238924 296:-0.307939 297:-0.652608 298:-0.981566 299:-0.318586 300:-0.44548 301:-0.823872 302:0.180192 303:0.0267237 304:0.266264 305:0.254968 306:0.162404 307:-0.30279 308:-0.532226 309:-0.624124 310:-0.547226 311:0.107651 312:-0.554834 313:0.817608 314:-0.351285 315:0.557704 316:-0.047401 317:-0.323751 318:-0.0441844 319:-0.335885 320:-0.5949 321:-0.884887 322:0.00622135 323:-0.432288 324:-0.883194 325:0.379063 326:-0.824481 327:0.184057 328:-0.00988937 329:-0.0607172 330:-0.724889 331:-0.816879 332:0.0175224 333:-0.159544 334:-0.624927 335:-0.293171 336:-0.370435 337:-0.0761421 338:-0.0612946 339:0.510972 340:0.130869 341:-0.602071 342:-0.414177 343:-0.592509 344:-0.364065 345:-0.362328 346:-0.183513 347:-0.187136 348:-0.624613 349:-0.537164 350:-0.408785 351:0.376883 352:-0.426837 353:-0.12339 354:-0.712667 355:-0.442071 356:0.245381 357:-0.65311 358:-1 359:-0.137865 
-62.211045215535364 43.754819832742328 0:0.557602 1:-0.795097 2:0.807025 3:0.233535 4:-0.910591 5:0.0997409 6:-0.594495 7:-0.591463 8:-0.474488 9:-0.3249 10:-0.902567 11:-0.937848 12:-0.228586 13:-0.226816 14:-0.560717 15:0.731929 16:-0.594243 17:-1 18:-0.229577 19:0.167865 20:0.572046 21:0.105684 22:-0.589855 23:0.533539 24:-0.586497 25:-1 26:-0.810611 27:0.0290803 28:0.12327 29:0.196117 30:-0.964643 31:-0.622597 32:0.084507 33:-1 34:0.0831949 35:-0.884567 36:-0.0267689 37:-0.375721 38:0.00586963 39:-0.712314 40:0.64552 41:-0.764011 42:-0.294964 43:-0.913086 44:-0.257231 45:0.0216327 46:0.576811 47:-0.016363 48:-1 49:-0.202906 50:-0.276369 51:0.660511 52:-1 53:-0.465012 54:-0.437859 55:0.212178 56:-0.565969 57:-0.924245 58:-0.773106 59:-0.652381 60:0.068031 61:-0.772718 62:-0.307156 63:-0.458747 64:-0.562551 65:0.341568 66:0.365281 67:0.313337 68:-0.967879 69:0.523163 70:-0.51738 71:-0.116362 72:-0.153846 73:-0.171088 74:0.0563009 75:0.337097 76:-0.788586 77:-1 78:-0.702785 79:-0.702785 80:-0.394892 81:-0.530668 82:-0.54179 83:0.138633 84:-0.707157 85:1 86:-0.850361 87:-0.759555 88:0.126446 89:-0.779326 90:-0.853781 91:0.529574 92:-1 93:-1 94:0.11599 95:-0.308592 96:-0.455882 97:-0.913344 98:-1 99:-0.595458 100:0.632073 101:0.117418 102:0.00512661 103:-0.495517 104:-0.743858 105:0.18701 106:-0.709853 107:-0.348867 108:-0.653113 109:0.122716 110:-0.021683 111:-0.232368 112:-0.0428994 113:-0.172461 114:-0.967204 115:-0.480857 116:-0.0267244 117:-0.48321 118:-0.365758 119:0.279611 120:-0.971354 121:-0.124111 122:-0.468389 123:-0.80129 124:-0.577729 125:-0.397092 126:0.576127 127:-1 128:0.0774692 129:-0.45257 130:-0.903197 131:-0.310943 132:-0.530012 133:-0.465012 134:-0.418158 135:-0.726743 136:0.184942 137:0.13829 138:0.108447 139:0.0353095 140:0.654245 141:-0.472752 142:0.151673 143:-0.249695 144:-0.233468 145:-0.648431 146:0.0270785 147:1 148:-0.159213 149:0.722108 150:-0.668916 151:-0.210012 152:-0.125256 153:-0.496026 154:-0.551114 155:-0.103021 156:-0.807603 157:-0.631956 158:-0.766946 159:-0.343382 160:-0.194038 161:-0.825482 162:-0.251085 163:-0.191375 164:0.458728 165:-0.00166698 166:-0.175526 167:-0.570689 168:-0.755056 169:-0.350263 170:-0.534243 171:-0.629657 172:-0.179354 173:-1 174:0.788775 175:0.00909682 176:0.274339 177:-0.879263 178:-0.176483 179:-0.880633 180:-0.742444 181:-0.750683 182:-0.870472 183:-0.124716 184:-0.121434 185:-0.288683 186:-0.115294 187:-1 188:-0.772737 189:-1 190:0.534241 191:-1 192:-0.684611 193:-0.0512184 194:-0.250478 195:-0.648216 196:-0.309746 197:-0.0638298 198:-0.112429 199:-0.203105 200:-0.0340502 201:-0.500695 202:0.318256 203:-0.807159 204:0.636236 205:-0.0603617 206:-0.941392 207:0.381298 208:-0.135135 209:0.0305927 210:-0.895976 211:-0.438268 212:0.17506 213:-0.785344 214:0.188464 215:-0.578773 216:-0.104841 217:-0.364693 218:-0.043266 219:-0.742352 220:-0.210191 221:0.701086 222:0.871699 223:-0.102913 224:-0.202663 225:-1 226:0.570132 227:0.592532 228:0.125963 229:-0.268344 230:0.149208 231:-0.551332 232:-0.524092 233:-0.31608 234:0.0501995 235:-0.623472 236:-0.0943672 237:0.585784 238:0.0695444 239:1 240:-0.282393 241:0.0414988 242:0.182913 243:-0.523934 244:-0.689248 245:0.386934 246:-0.774202 247:-0.150247 248:-0.255834 249:-0.560717 250:0.0231672 251:-0.637809 252:0.0816054 253:-0.341076 254:-1 255:0.0325324 256:-0.837368 257:-0.251649 258:0.206416 259:-0.634522 260:-0.638259 261:-0.600638 262:-0.457316 263:-0.902284 264:0.12064 265:-0.22713 266:0.147724 267:-0.386178 268:-0.177413 269:-0.043266 270:-0.278152 271:-0.848723 272:-0.813123 273:-0.35611 274:0.239275 275:-0.427738 276:-0.618774 277:-0.671474 278:0.987465 279:-0.80129 280:-0.242756 281:-0.573905 282:0.0360342 283:-0.105622 284:0.314239 285:-0.921828 286:-0.043648 287:-0.190285 288:-0.0856278 289:0.291567 290:-0.0729274 291:1 292:0.645555 293:-0.0890141 294:-0.924399 295:1 296:0.110041 297:0.526401 298:-0.974125 299:0.113797 300:-0.15103 301:-0.669386 302:-0.220676 303:0.440406 304:-0.315895 305:-0.626526 306:-0.0805627 307:-0.511 308:-0.478844 309:0.406031 310:-0.406884 311:-0.171088 312:1 313:-0.716689 314:-0.553652 315:0.344978 316:-0.382928 317:-0.579682 318:-0.0322427 319:-0.600642 320:-1 321:-0.0542146 322:-0.117551 323:-0.528688 324:-0.672091 325:-0.72323 326:-0.605814 327:0.418955 328:-0.923902 329:-0.560717 330:-0.382146 331:-0.468153 332:0.318256 333:-0.376475 334:-1 335:-0.256381 336:-1 337:-0.135987 338:0.618102 339:-0.161129 340:-0.185744 341:-0.0428994 342:-0.752689 343:-0.209648 344:0.332333 345:-0.283975 346:0.122079 347:-0.500108 348:-0.649031 349:-0.258087 350:-0.205749 351:0.143168 352:-0.224738 353:0.230318 354:-0.51786 355:0.105434 356:-0.712724 357:0.377902 358:-0.57875 359:-0.308753 
-24.071331245423558 0.77007287271439451 0:0.0173348 1:-0.684863 2:-0.402479 3:0.342376 4:-0.649664 5:-0.00949914 6:-0.420564 7:-0.229586 8:-0.351641 9:-1 10:-0.745481 11:-0.722563 12:-1 13:-0.691444 14:-0.47392 15:0.0890594 16:-0.643546 17:-0.855583 18:-0.402027 19:-0.725227 20:-0.617328 21:-0.806949 22:-0.917391 23:-0.666272 24:-0.700502 25:1 26:-0.917545 27:-0.550577 28:-0.1637 29:0.171706 30:-0.946145 31:-0.198117 32:-0.85835 33:-0.985566 34:-0.436933 35:-0.840266 36:0.103748 37:-0.579243 38:-0.15189 39:-0.80049 40:-0.488119 41:-0.845884 42:-0.334641 43:-0.94324 44:-0.491966 45:-0.740723 46:-0.739201 47:-0.951955 48:-0.859743 49:-0.792252 50:-0.314105 51:-0.738703 52:-0.672342 53:-0.0972705 54:-0.591865 55:-0.902951 56:-0.702922 57:-0.835067 58:-0.0518939 59:-0.743083 60:-0.865044 61:-0.406283 62:-0.587714 63:-0.476586 64:-0.18916 65:-0.303088 66:-0.00476039 67:0.107795 68:-0.985996 69:-0.618948 70:-0.505793 71:-0.102431 72:-0.0788854 73:-0.413303 74:-0.483636 75:-0.485153 76:-0.309669 77:-0.371951 78:-0.417701 79:-0.51475 80:-0.0777435 81:-0.756606 82:-0.49046 83:-0.150098 84:-0.47718 85:-0.868625 86:-0.543865 87:-0.35583 88:-0.181093 89:-0.35331 90:-0.84076 91:-1 92:0.837931 93:-0.0990403 94:-0.426954 95:-0.941089 96:-0.800161 97:1 98:-0.13708 99:-0.831371 100:-0.410566 101:-0.888258 102:-0.416498 103:-0.542456 104:-0.397709 105:-0.806247 106:-1 107:-0.593906 108:-0.927082 109:-0.544238 110:-0.923077 111:-0.321752 112:-0.583432 113:-0.570893 114:-0.935747 115:-0.378281 116:-0.618635 117:-0.415644 118:-0.816042 119:-0.442915 120:0.153858 121:-0.809466 122:-0.953644 123:-0.221382 124:-0.822707 125:-0.277964 126:-0.142509 127:-0.980621 128:-0.440384 129:-0.0940483 130:-0.715427 131:-0.679596 132:-0.710614 133:0.902399 134:-0.335777 135:0.487452 136:-0.901948 137:-0.575328 138:-0.865518 139:-0.627724 140:-0.57217 141:-0.783211 142:0.309281 143:-0.223943 144:0.168049 145:-0.809178 146:-0.457069 147:-0.839092 148:-0.371605 149:0.124344 150:-0.140315 151:-0.598779 152:-0.652067 153:-0.378214 154:-0.364564 155:-0.830689 156:-0.706943 157:-0.7197 158:-0.774633 159:-0.714068 160:0.151674 161:-0.867088 162:-0.531342 163:-0.897375 164:-0.428417 165:-0.304316 166:0.16673 167:-0.859817 168:1 169:-1 170:-0.131953 171:0.123323 172:-0.606882 173:-0.121647 174:-0.416091 175:-0.17154 176:-0.306545 177:-0.842303 178:-0.797541 179:-0.922046 180:-0.579501 181:-0.49366 182:-0.647462 183:-0.733355 184:-0.489813 185:-0.24678 186:-0.33479 187:-0.929943 188:-0.7724 189:-0.457341 190:-0.535079 191:-0.953148 192:-0.828262 193:-0.399095 194:0.387102 195:-0.339702 196:-0.264887 197:0.376031 198:0.43381 199:-0.739789 200:-0.298686 201:-0.510885 202:-0.617359 203:1 204:-0.526217 205:-0.642188 206:-0.559736 207:-0.0982067 208:0.549688 209:0.17782 210:-0.750844 211:-0.494026 212:-0.283628 213:-0.766229 214:-0.439383 215:-0.567993 216:-0.518672 217:-1 218:0.197692 219:0.00956023 220:-0.962891 221:-0.0562685 222:-0.182126 223:-0.414147 224:0.620316 225:-0.450305 226:-0.967019 227:-0.81797 228:-0.203498 229:-0.778616 230:-0.0709501 231:-0.25111 232:-0.701446 233:-0.657596 234:-0.424202 235:-0.644662 236:-0.683687 237:-0.597549 238:-0.592326 239:0.119237 240:-0.714174 241:-0.694601 242:-0.595108 243:-0.665796 244:-0.458634 245:0.811633 246:0.0662359 247:-0.394569 248:-0.505344 249:-0.744906 250:-0.675024 251:-0.553141 252:0.0989967 253:-0.330481 254:-0.808974 255:0.183925 256:-0.441579 257:-0.0631725 258:-0.786519 259:-0.669979 260:-0.744788 261:1 262:-0.91052 263:1 264:-0.148189 265:-0.242899 266:0.561884 267:-0.684127 268:-0.7314 269:0.145773 270:-0.970167 271:-0.703621 272:-0.555695 273:-0.439255 274:-0.22184 275:-1 276:-1 277:-0.141783 278:0.211429 279:-0.87023 280:-0.909696 281:-0.814389 282:-0.353468 283:-0.459171 284:-0.666464 285:1 286:-0.0837473 287:-0.177266 288:-0.446293 289:-0.212746 290:-0.394565 291:-0.859914 292:-0.23884 293:-0.470986 294:1 295:-0.410521 296:0.0499124 297:-0.642627 298:1 299:-0.729989 300:-0.845952 301:-0.582487 302:-0.278872 303:-0.12186 304:0.399061 305:-0.164472 306:-0.7289 307:-0.30778 308:-0.945756 309:-0.655746 310:-0.428257 311:-0.142637 312:-0.0748899 313:-0.444941 314:-0.830273 315:0.171553 316:-0.0374821 317:-0.3952 318:-0.125866 319:1 320:-0.0916019 321:-0.888971 322:-0.2315 323:-0.544019 324:-0.732319 325:-0.684945 326:-0.849895 327:0.200709 328:-0.691586 329:-0.760799 330:-0.125663 331:-0.392251 332:0.243276 333:-0.107448 334:-0.633131 335:0.0793286 336:-0.929938 337:-0.749399 338:-0.697155 339:0.0758621 340:-0.436734 341:-0.236095 342:1 343:-0.673541 344:-0.158233 345:1 346:-0.676556 347:-0.924023 348:-0.579684 349:-0.394357 350:-0.874359 351:-0.204137 352:-0.304883 353:-0.234882 354:-0.236192 355:0.103042 356:-0.699193 357:-0.962488 358:-0.529894 359:-0.32286 
-0 28.691056580137399 0:-1 1:-0.662423 2:-0.904959 3:-0.388462 4:-1 5:0.0863558 6:1 7:-0.501591 8:-0.797205 9:-0.690635 10:-0.661786 11:-1 12:-0.939083 13:0.490918 14:-0.745721 15:-0.554524 16:-0.108253 17:-0.616272 18:-0.832081 19:-0.568928 20:-0.445884 21:-0.0600378 22:0.135749 23:-0.11306 24:0.280692 25:-0.869321 26:-1 27:-0.476833 28:-0.749945 29:-0.307628 30:-1 31:-0.76736 32:-0.247082 33:-1 34:-0.519233 35:-0.84921 36:-0.396903 37:-0.995013 38:0.454845 39:-0.497885 40:0.087857 41:0.365587 42:-0.184216 43:-1 44:-0.265894 45:0.182062 46:0.879506 47:-0.708251 48:-0.878709 49:-0.0387409 50:-0.135566 51:0.715128 52:0.740999 53:-0.845161 54:0.518164 55:-0.282623 56:-0.232924 57:-0.736964 58:-0.44053 59:-0.677552 60:0.0829646 61:-0.211048 62:0.644079 63:0.184675 64:-0.469477 65:0.286461 66:0.238337 67:0.139769 68:-1 69:-0.0508534 70:-0.404189 71:-0.488937 72:0.224097 73:0.199154 74:-0.691285 75:-0.423254 76:0.712885 77:0.795497 78:-1 79:-1 80:-0.124614 81:-0.795738 82:-0.618382 83:-0.247247 84:-0.299414 85:-0.73893 86:-1 87:-0.848815 88:-0.168728 89:-0.700348 90:-1 91:-0.714373 92:-0.545661 93:-0.0422265 94:-0.386081 95:-0.809868 96:-0.604956 97:-0.899678 98:-0.344538 99:-0.226241 100:-0.0994905 101:-1 102:-0.224794 103:-0.708226 104:-1 105:-0.485069 106:-0.255754 107:-0.19703 108:-0.576894 109:-0.579917 110:0.15333 111:-0.637416 112:-0.0772189 113:0.184731 114:-1 115:0.201541 116:0.802456 117:0.0167394 118:0.223377 119:-0.555898 120:-1 121:-0.239894 122:0.230496 123:0.149862 124:-0.194323 125:-0.302293 126:-0.0884287 127:-1 128:-0.231572 129:0.267114 130:-1 131:-0.177231 132:0.0286921 133:-0.587097 134:-0.809791 135:-0.68365 136:-0.101773 137:-0.0592671 138:-0.60442 139:-0.86748 140:0.639623 141:-0.932192 142:-0.259672 143:0.302593 144:-0.408391 145:-0.825253 146:0.018642 147:-0.0316302 148:0.00601724 149:0.992699 150:1 151:0.0664225 152:-0.972984 153:-0.416861 154:-1 155:-0.985221 156:-0.109406 157:0.0648686 158:-0.0538085 159:-0.366829 160:-0.995293 161:-0.89898 162:-0.675117 163:-0.610125 164:-0.324493 165:-0.0757548 166:-0.0458891 167:-0.502987 168:-0.716542 169:-0.808172 170:0.00247367 171:-0.0700447 172:-0.240256 173:-0.22146 174:0.724634 175:0.22937 176:-0.262816 177:-1 178:-0.298343 179:-0.585649 180:0.341297 181:-0.25179 182:-0.475278 183:0.823319 184:0.0165716 185:-1 186:-0.154286 187:-0.946753 188:-0.894759 189:-0.134566 190:0.0341361 191:-0.917033 192:-1 193:0.303954 194:-0.78307 195:-0.802566 196:-0.673965 197:0.35432 198:0.0703694 199:0.844761 200:-0.25448 201:-0.422186 202:0.270986 203:-0.632067 204:0.329588 205:0.0873829 206:-1 207:0.0653288 208:0.819543 209:-0.701721 210:-1 211:0.327446 212:0.35993 213:-0.254879 214:-0.770757 215:0.0439469 216:-0.607192 217:0.466519 218:-0.169736 219:0.789197 220:-0.391581 221:-0.476012 222:-0.0798917 223:-0.307628 224:-0.0774162 225:-0.110591 226:-0.996665 227:-0.547258 228:-0.348649 229:-0.387841 230:-0.0502436 231:-0.134573 232:-0.761119 233:-0.841675 234:-0.167553 235:-0.12842 236:-0.103438 237:0.834804 238:-0.525432 239:-0.669316 240:-0.394213 241:1 242:-0.284045 243:-0.413403 244:-0.280484 245:0.146375 246:0.353299 247:-0.553056 248:-0.652345 249:-0.322195 250:-0.553158 251:-0.301378 252:0.668896 253:-0.491443 254:-1 255:-0.0525197 256:-0.464211 257:-0.566817 258:-0.0437273 259:0.193844 260:-0.255212 261:-0.00199283 262:-0.0529625 263:-1 264:0.106865 265:-0.329272 266:-0.33564 267:-0.996415 268:0.428081 269:-0.446195 270:-0.834747 271:-0.649733 272:-0.543488 273:-0.254808 274:0.75866 275:-0.994317 276:0.100575 277:-0.239691 278:0.149862 279:0.379908 280:-0.103921 281:-0.601428 282:-0.566757 283:0.149862 284:-0.239894 285:-0.940756 286:0.328247 287:-0.687531 288:0.282602 289:-0.551749 290:-0.570691 291:0.692888 292:-0.28615 293:0.0540845 294:-0.825023 295:-0.830545 296:-0.0563339 297:1 298:-0.970045 299:-0.811859 300:-0.181472 301:-1 302:0.578529 304:-0.443327 305:-0.206129 306:0.63214 307:0.131776 308:-0.768758 309:-0.593154 310:-0.411755 311:-0.520185 312:0.735683 313:-0.344021 314:0.313749 315:0.945727 316:0.427945 317:-0.310913 318:0.149749 319:-0.845888 320:0.122087 321:-0.065726 322:-0.183039 323:-0.410685 324:-0.240913 325:-0.904287 326:-0.885913 327:0.548627 328:-1 329:-1 330:0.0726465 331:-0.00212314 332:0.270986 333:-1 334:-0.512405 335:-0.426075 336:-0.823851 337:1 338:-0.0437273 339:-0.00188088 340:0.310956 341:0.660947 342:-0.705985 343:0.0295125 344:-0.447256 345:-0.585879 346:1 347:-0.623138 348:-0.187693 349:-0.35616 350:-0.428686 351:-1 352:-0.0778038 353:-0.390057 354:-1 355:0.705571 356:-0.25579 357:-0.0655525 358:1 359:1 
-16.044981657833766 39.405889383777641 0:-0.407006 1:-0.450191 2:-0.0636364 3:-0.328975 4:-0.795637 5:-0.28886 6:-0.338985 7:-0.401113 8:-0.733182 9:-0.609854 10:-0.257954 11:-0.976304 12:1 13:-0.0188815 14:-0.497963 15:0.172229 16:-0.751646 17:-0.873731 18:-0.835897 19:-0.450453 20:0.671771 21:1 22:-0.775845 23:-0.610808 24:-0.125569 25:-0.885315 26:-0.519208 27:-0.599833 28:-0.576796 29:0.138974 30:-0.973039 31:-0.129463 32:-0.834608 33:-1 34:-0.422364 35:-0.596506 36:-1 37:-1 38:0.306354 39:-0.461145 40:-0.820798 41:-1 42:-0.46283 43:-0.834476 44:-0.39416 45:-0.740723 46:-0.415719 47:-0.189741 48:0.153717 49:-0.451816 50:-0.35367 51:-0.439293 52:-0.312308 53:-0.592556 54:-0.571702 55:-0.562342 56:-0.0337195 57:-0.624947 58:-0.452652 59:-0.908864 60:-0.556969 61:-0.653806 62:0.228626 63:-1 64:-0.0287435 65:-1 66:1 67:1 68:-0.975507 69:-0.353535 70:-0.323084 71:-0.551489 72:-0.355573 73:0.262591 74:0.0748589 75:0.421999 76:-0.355952 77:0.0952158 78:-0.433967 79:-0.433967 80:0.152119 81:1 82:0.202634 83:-0.875999 84:-0.748357 85:-0.0564533 86:-0.772071 87:-0.654088 88:-1 89:-0.326365 90:-0.721533 91:-0.406987 92:-0.476646 93:0.260653 94:-0.621651 95:0.318375 96:-0.528606 97:-0.933923 98:-0.137605 99:-0.757359 100:-0.882542 101:-0.347641 102:-0.234737 103:-0.487875 104:-0.219693 105:-0.43498 106:0.152314 107:-0.684547 108:-0.645611 109:-1 110:-0.816985 111:-0.461618 112:-0.757101 113:-0.111452 114:-1 115:-0.0113171 116:-0.258577 117:1 118:-0.516768 119:-0.220508 120:-0.912734 121:-0.833029 122:0.0527665 123:-0.394654 124:-0.745852 125:-0.540828 126:-1 127:-1 128:0.269576 129:0.167378 130:-0.926275 131:0.392621 132:-1 133:-0.59239 134:0.0683632 135:0.248669 136:-0.568396 137:-0.133162 138:-0.536243 139:-0.781604 140:0.616981 141:-0.64314 142:-0.317826 143:1 144:-0.610808 145:-0.748509 146:-0.329705 147:-0.515977 148:-0.143275 149:-0.250742 150:-0.0720641 151:-0.398535 152:-0.556283 153:-0.488234 154:0.538622 155:-0.321235 156:-0.853293 157:-0.7197 158:-1 159:1 160:-0.247908 161:-0.80055 162:-0.287203 163:-0.692125 164:1 165:-0.69587 166:0.255832 167:-0.673039 168:-0.860032 169:-0.593548 170:-0.273447 171:-0.161326 172:1 173:0.0243294 174:-0.318772 175:0.208577 176:-0.150835 177:-0.953968 178:-0.308605 179:1 180:-0.41154 181:-0.15499 182:-0.851968 183:1 184:-0.553926 185:-0.509188 186:-0.236639 187:-0.859886 188:-0.826875 189:-1 190:-0.75623 191:-0.123475 192:-0.639702 193:-0.673428 194:-0.286285 195:1 196:-0.625367 197:-0.643508 198:0.274737 199:-0.848087 200:0.961768 201:-0.524548 202:-0.497963 203:-0.883937 204:-0.361891 205:0.25256 206:-0.509011 207:0.928266 208:-0.231601 209:-0.0186424 210:-1 211:-0.331948 212:-0.284064 213:0.144564 214:-0.547392 215:-0.568408 216:0.0650069 217:-0.805202 218:-0.635678 219:0.177342 220:-0.914151 221:0.0819348 222:0.393026 223:-0.316505 224:-0.595168 225:-0.749084 226:-0.619418 227:-0.46231 228:-0.678371 229:-1 230:1 231:0.139012 232:-0.00630096 233:-0.687536 234:-0.385638 235:-0.426476 236:-0.597952 237:-0.396078 238:-0.844251 239:-0.564918 240:-0.645316 241:-0.269541 242:-0.595473 243:-0.513055 244:0.420006 245:-0.622714 246:-0.684976 247:1 248:-0.3012 249:-0.665308 250:1 251:-0.356255 252:-0.450836 253:-0.665444 254:-1 255:0.283011 256:0.607368 257:-0.430059 258:-0.607791 259:-0.784531 260:-0.409164 261:-0.917896 262:0.280774 263:-0.702321 264:0.0855365 265:-0.852881 266:-0.781208 267:-0.590918 268:-0.216711 269:-0.453295 270:-0.661597 271:-1 272:-0.440086 273:-0.313344 274:-0.114935 275:-0.459684 276:0.376437 277:-0.388516 278:-0.0919816 279:-0.243134 280:-0.117231 281:-0.518335 282:-0.23141 283:-0.47023 284:-1 285:-0.904888 286:0.0198722 287:-0.794191 288:-0.109531 289:-0.606612 290:-0.293774 291:0.445761 292:-0.52995 293:-0.537465 294:-0.913598 295:-0.285504 296:0.169294 297:-0.151964 298:-1 299:-0.302395 300:-0.569085 301:-0.524222 302:-0.257907 303:0.536077 304:-0.361949 305:-0.221451 306:-0.529412 307:-0.62758 308:-0.924108 309:-0.0630807 310:1 311:-0.684352 312:0.142128 313:-0.352431 314:-0.375765 315:0.280724 316:-0.530186 317:-0.150154 318:-0.112491 319:-0.898493 320:-0.31555 321:-0.998143 322:-0.596595 323:-0.326597 324:-0.00106464 325:-0.170887 326:-0.69979 327:1 328:-0.347637 329:-0.497963 330:1 331:-0.454883 332:-0.497963 333:-0.418396 334:-0.518656 335:-0.0558749 336:-0.521988 337:-0.561314 338:-0.294252 339:-0.402508 340:-0.791062 341:-0.635503 342:-0.823481 343:-0.254973 344:-0.284734 345:-0.636565 346:-0.215017 347:-0.190158 348:-0.465408 349:-1 350:-0.685999 351:-0.183451 352:-0.732674 353:-0.59837 354:1 355:-0.579118 356:-0.272443 357:0.148375 358:-0.429792 359:-0.341776 
-0 11.922375464776746 0:0.18346 1:-0.643459 2:0.204132 3:0.285177 4:-1 5:-0.680915 6:0.590107 7:-0.989396 8:-0.573936 9:-0.0665779 10:-0.407628 11:-1 12:-0.668408 13:-1 14:-0.733089 15:-0.298233 16:-0.451845 17:-0.899262 18:-0.504592 19:-0.324476 20:0.452951 21:-0.576683 22:0.212077 23:-0.6895 24:0.675038 25:-0.908434 26:-0.539471 27:-0.806317 28:0.429576 29:-0.272677 30:-1 31:-1 32:-0.736419 33:-1 34:-0.654441 35:-0.154742 36:0.398061 37:0.658407 38:-0.540521 39:-0.462703 40:1 41:-0.139229 42:1 43:-1 44:0.885706 45:0.448603 46:-0.0721013 47:-0.534177 48:-0.763995 49:-0.612107 50:0.570443 51:-0.988605 52:-0.634385 53:-0.0243176 54:-0.316531 55:-0.855176 56:-0.405153 57:-0.861841 58:-0.392803 59:-0.785614 60:-0.762168 61:-0.723803 62:0.328689 63:0.261301 64:1 65:-0.261283 66:-0.51317 67:0.19732 68:-1 69:0.699756 70:-0.361854 71:-0.462988 72:0.0286499 73:0.511726 74:0.647147 75:1 76:-0.228868 77:-0.637899 78:-0.457954 79:-0.81941 80:-0.0802694 81:-0.886828 82:-0.768879 83:0.779454 84:0.0942994 85:-0.437566 86:-0.272349 87:-0.675133 88:-0.641005 89:0.850871 90:-1 91:-0.885994 92:-0.0454339 93:0.00614203 94:-0.713063 95:-0.643556 96:-0.579573 97:-0.789228 98:-0.655987 99:-1 100:-0.751676 101:0.405818 102:0.425198 103:-0.693411 104:-1 105:-0.819733 106:0.148694 107:-0.140699 108:-0.744936 109:-0.929794 110:-0.627517 111:-0.0253898 112:0.550888 113:-0.644172 114:-1 115:-1 116:-0.289996 117:-0.717155 118:-1 119:-0.222169 120:-1 121:0.0647979 122:-0.353585 123:0.449585 124:0.719214 125:-1 126:0.276979 127:-1 128:-1 129:0.0647979 130:-1 131:-0.954273 132:-0.366309 133:0.30091 134:0.065344 135:0.328771 136:-0.0326111 137:0.581059 138:-0.568833 139:0.86007 140:0.728774 141:-0.430372 142:-0.0666983 143:-0.315817 144:-0.0680256 145:-0.388255 146:-0.643217 147:-0.172749 148:-0.571963 149:0.495323 150:0.21365 151:-0.840049 152:-0.960295 153:-0.183107 154:0.364564 155:-0.964573 156:0.169731 157:-0.328781 158:-0.685535 159:-0.600893 160:0.0491632 161:0.27311 162:-0.886265 163:-0.836125 164:0.773748 165:-0.757362 166:0.00229446 167:-1 168:-1 169:-0.791375 170:0.0602869 171:0.232861 172:-0.00213155 173:-0.591391 174:0.811999 175:-0.11436 176:-0.0317624 177:-0.926639 178:0.302405 179:-1 180:-0.217059 181:-0.314848 182:-1 183:-1 184:-0.644118 185:0.811437 186:1 187:-0.88813 188:-0.889446 189:-1 190:-0.448796 191:-0.24695 192:-0.616589 193:-0.196264 194:-0.316531 195:-0.662077 196:0.0512684 197:0.707338 198:0.138312 199:-0.515432 200:-0.216846 201:-0.241084 202:-0.46577 203:-0.476119 204:-0.516854 205:0.142297 206:-1 207:-0.440222 208:0.106861 209:-0.0602294 210:-1 211:-0.958095 212:1 213:-0.217045 214:-0.0371051 215:-0.162521 216:-0.572337 217:0.190924 218:-0.418238 219:0.879541 220:-0.892274 221:-0.95617 222:0.195328 223:-0.272677 224:0.615878 225:-0.599593 226:-0.742079 227:-0.1972 228:-0.144498 229:-0.622642 230:0.19732 231:1 232:-0.859155 233:-0.334983 234:0.538231 235:0.0681104 236:0.143526 237:-0.0362745 238:-0.824309 239:-0.305246 240:-1 241:-0.205882 242:-0.477181 243:-0.0870322 244:0.133468 245:0.0838923 246:-0.797813 247:-0.248836 248:-0.910578 249:-0.465906 250:-0.51317 251:-0.853287 252:0.753177 253:-0.733089 254:-1 255:0.55858 256:-0.0863158 257:0.592156 258:0.0166126 259:-0.75375 260:-0.655212 261:-0.461538 262:-0.316566 263:-1 264:-0.973784 265:-0.765075 266:-0.302103 267:0.582155 268:1 269:-0.127579 270:-0.0403627 271:-0.264384 272:0.190557 273:0.0959264 274:0.258546 275:-0.989556 276:-0.765326 277:-0.467533 278:-0.0337327 279:-0.0337327 280:-0.0525238 281:-0.86212 282:0.00520725 283:0.207926 284:-0.467398 285:-0.556712 286:0.395316 287:0.640961 288:0.755219 289:-0.057978 290:-0.0983832 291:0.323994 292:1 293:0.107606 294:-0.954064 295:-0.638335 296:0.763865 297:-0.154218 298:-0.968556 299:0.405245 300:-0.312164 301:-0.116697 302:0.42129 303:-0.299305 304:-0.693718 305:-0.773043 306:-0.112106 307:-1 308:-0.914391 309:-0.572616 310:-0.793965 311:0.511726 312:-1 313:-0.655716 314:-0.946144 315:0.22645 316:1 317:-0.266816 318:1 319:-0.676216 320:0.762861 321:-0.482362 322:-1 323:-0.214634 324:-0.90038 325:-0.369093 326:-0.520797 327:-0.644641 328:-0.445525 329:-0.46577 330:-0.812294 331:-0.630573 332:-0.46577 333:0.612943 334:-0.231881 335:-0.397103 336:-0.157019 337:-0.299492 338:0.516899 339:-0.764263 340:1 341:-0.61213 342:-0.929576 343:0.0891205 344:-0.674099 345:-0.709827 346:0.427671 347:-0.582128 348:0.0669054 349:-0.323469 350:-0.654237 351:0.200508 352:1 353:-0.359087 354:-0.990244 355:-0.328093 356:-0.871975 357:-0.980687 358:-0.683293 359:0.26066 
-0 9.9200375203039393 0:-0.421813 1:-0.459106 2:-0.759091 3:-0.581631 4:-0.840756 5:-0.700345 6:0.54802 7:-0.314422 8:-0.375691 9:0.183755 10:0.157267 11:0.937848 12:-0.806407 13:-0.234943 14:-0.608802 15:-0.0858469 16:-0.470219 17:-0.901569 18:-0.59523 19:-0.248203 20:1 21:-0.310656 22:-0.597585 23:-0.241052 24:0.700502 25:-0.910599 26:-0.925041 27:-0.369417 28:-0.0323006 29:-0.467406 30:-0.937026 31:-0.377795 32:-1 33:-0.960692 34:-0.0934185 35:-0.576123 36:-0.748517 37:-0.286583 38:0.366698 39:-0.76464 40:0.116634 41:-0.43958 42:-0.162416 43:-0.870918 44:-0.149085 45:-0.494394 46:-0.205586 47:-0.325287 48:-0.822117 49:-0.316707 50:0.0512842 51:-0.491159 52:0.250907 53:-0.841191 54:-0.555015 55:-0.441124 56:-0.757911 57:-0.842516 58:-0.173106 59:-0.520885 60:-0.416482 61:-0.189964 62:0.0880304 63:-0.554024 64:-0.627156 65:-0.587173 66:-0.125992 67:0.0721681 68:-0.942791 69:-0.239638 70:-0.239305 71:-0.125649 72:-0.497645 73:0.35371 74:-1 75:-0.529486 76:-0.74897 77:0.0984991 78:-0.470361 79:-0.735318 80:-0.191412 81:-0.813761 82:-0.690943 83:0.255393 84:-0.446812 85:-0.590766 86:-1 87:-0.841074 88:-0.142401 89:-0.09036 90:-0.739437 91:-0.797119 92:-0.591915 93:-0.385413 94:-0.721624 95:-1 96:-0.914182 97:-1 98:-0.495798 99:-0.602187 100:0.613837 101:-0.426392 102:-1 103:-0.550721 104:-0.452359 105:-0.29517 106:-0.0561159 107:-0.823326 108:-0.177794 109:-0.842037 110:-0.473929 111:-0.622569 112:0.041716 113:-0.109066 114:-0.961059 115:-0.691789 116:-0.884435 117:-0.404687 118:0.25554 119:-0.316164 120:0.275935 121:-0.739996 122:-0.621067 123:-0.291797 124:-0.444978 125:-0.462808 126:-0.37637 127:-0.775143 128:-0.604928 129:0.430429 130:0.235991 131:-0.55503 132:-0.500088 133:-0.364433 134:-0.657537 135:-0.351077 136:-0.0658787 137:-0.0345348 138:-0.226072 139:-1 140:0.0820755 141:-0.721706 142:0.595538 143:-0.108752 144:-0.393221 145:-0.735805 146:-0.303034 147:-0.409895 148:-0.482517 149:0.314625 150:0.181187 151:0.0942613 152:0.0818666 153:0.596385 154:-0.467 155:-0.974353 156:-0.657326 157:-0.234892 158:-0.696366 159:-0.837495 160:-0.652197 161:-0.378177 162:-0.0550443 163:-0.719875 164:-0.307172 165:-0.288387 166:-0.510516 167:-0.872561 168:-0.927289 169:-0.500633 170:-0.465121 171:-0.755216 172:-0.0252741 173:-0.401123 174:-0.469173 175:-0.975958 176:-0.0542178 177:-0.856639 178:-0.277392 179:-0.787399 180:-0.311671 181:-0.36468 182:1 183:-0.480026 184:-0.304537 185:-0.114889 186:-0.234286 187:-0.890776 188:-0.892061 189:-0.0379191 190:-0.467644 191:-0.432406 192:-0.718988 193:0.0617248 194:0.224057 195:-0.373607 196:-0.147931 197:-0.444203 198:-0.757347 199:-0.171687 200:0.33871 201:-0.851783 202:-0.478403 203:-0.42746 204:-0.231273 205:-0.302244 206:0.705494 207:-0.726729 208:-0.456965 209:-0.234704 210:-0.443983 211:-0.630476 212:0.116634 213:-0.745121 214:-0.0591477 215:0.0779436 216:-0.234855 217:0.511898 218:-0.431995 219:-0.234704 220:-0.546109 221:-0.835735 222:0.7065 223:-0.289875 224:-0.368836 225:-0.739308 226:-0.278859 227:-0.823104 228:-0.164339 229:-0.769811 230:-0.3176 231:-0.289401 232:-0.689585 233:-0.593911 234:-0.140293 235:-0.47817 236:-0.82414 237:0.0985294 238:-0.751104 239:-0.491256 240:-0.500539 241:0.0278002 242:-0.844469 243:-0.809835 244:-0.446526 245:1 246:-0.723872 247:-0.724726 248:-0.219193 249:-0.913067 250:-0.939067 251:-0.569717 252:0.498997 253:0.0436023 254:-0.928976 255:-0.432703 256:-0.278421 257:1 258:-0.379034 259:-0.391389 260:-0.962428 261:0.15823 262:-0.412334 263:-0.825961 264:0.0082204 265:-0.598423 266:-0.488954 267:0.157538 268:-0.877909 269:-0.715997 270:-0.539339 271:-0.281224 272:-0.701104 273:-0.847091 274:-0.216793 275:-0.795116 276:0.139847 277:-0.241384 278:0.416037 279:-0.0558525 280:-0.732569 281:-0.78373 282:0.246824 283:-0.46894 284:-0.869998 285:-0.93451 286:-0.431867 287:-0.198297 288:-0.162179 289:-0.38644 290:-0.229102 291:-0.288793 292:0.22129 293:-0.639437 294:-0.865278 295:-0.222059 296:-0.307939 297:-0.693818 298:-0.984638 299:-0.435576 300:-0.411888 301:-0.674713 302:-0.0742816 303:0.881881 304:0.437514 305:-0.634187 306:-0.137681 307:-0.273758 308:-0.603198 309:-0.895681 310:0.207292 311:-0.138408 312:0.187572 313:0.00972405 314:0.0926153 315:0.597629 316:0.0990939 317:-0.377337 318:-0.12085 319:-0.525562 320:-0.6887 321:-0.861121 322:-0.475769 323:-0.0160279 324:-0.951331 325:0.378664 326:-0.707286 327:-0.541895 328:-0.514415 329:-0.608802 330:-0.724889 331:-0.647028 332:-0.0867971 333:0.17908 334:-0.499902 335:-0.558519 336:-0.736149 337:-0.487042 338:-0.501241 339:0.430721 340:-0.376391 341:0.42071 342:-0.991174 343:-0.219413 344:-0.418954 345:-0.0790173 346:-0.620898 347:-0.878265 348:-0.270389 349:-0.889883 350:-0.473314 351:-0.180911 352:-0.438113 353:-0.895681 354:-0.289693 355:0.203349 356:-0.888108 357:-0.748561 358:-0.693885 359:-0.178903 
-94.790902806946988 88.044129439547177 0:-0.358974 1:-0.717653 2:0.339669 3:0.16032 4:-0.823339 5:0.462867 6:-0.460856 7:-0.316013 8:-0.769256 9:1 10:-0.807484 11:-0.979532 12:-0.205323 13:0.272706 14:-0.710676 15:-0.112975 16:-0.710917 17:-0.890803 18:-0.791055 19:-0.461082 20:-0.240152 21:-0.425789 22:-0.170531 23:-0.326855 24:-0.88763 25:-0.776847 26:-0.958421 27:-0.479616 28:-0.0503186 29:0.575589 30:-1 31:-0.0035308 32:1 33:-1 34:-0.15885 35:-0.222754 36:-0.194328 37:0.275674 38:-0.484296 39:-0.639056 40:0.393067 41:-0.222855 42:0.238282 43:-1 44:-0.617437 45:0.345334 46:-0.196168 47:-0.648137 48:-0.94769 49:0.128329 50:-0.936497 51:-0.130059 52:-0.405526 53:-0.471464 54:0.727794 55:-0.36918 56:-0.574961 57:-0.700632 58:-0.578788 59:-0.198872 60:-0.24115 61:-0.401223 62:-0.431919 63:0.826069 64:0.596496 65:-0.0147268 66:-0.218661 67:0.0809988 68:-1 69:-0.365378 70:-0.13057 71:0.551489 72:-0.303375 73:-0.590542 74:-0.0031348 75:-0.278963 76:-0.164542 77:-0.420263 78:-0.510615 79:-0.216984 80:-0.402189 81:-0.984331 82:-0.548777 83:0.392367 84:-0.807494 85:-0.070724 86:-0.507218 87:-0.893082 88:0.393698 89:0.369106 90:-0.951848 91:-0.308612 92:-0.353546 93:0.49904 94:-0.486882 95:-0.811995 96:-0.678485 97:-0.942926 98:0.305147 99:-0.0811606 100:-0.150979 101:0.163888 102:-0.558801 103:-0.889279 104:-0.932519 105:0.465529 106:-0.0773209 107:-0.497119 108:-0.392648 109:-0.301108 110:0.0562726 111:-0.244246 112:0.0502959 113:0.481936 114:-1 115:0.709608 116:-0.358974 117:-0.74475 118:-0.164542 119:-0.241633 120:-0.943399 121:0.00954702 122:-0.36976 123:0.0470046 124:0.111354 125:0.0920022 126:0.383678 127:-1 128:-0.532261 129:-0.0625635 130:-1 131:0.182592 132:-0.28921 133:0.409429 134:-0.735605 135:-0.280101 136:-0.2239 137:0.0707284 138:-0.374415 139:-0.365737 140:-0.121226 141:-0.691388 142:-0.915737 143:-0.135201 144:0.85115 145:-0.653617 146:-0.613553 147:-0.0663423 148:-0.287689 149:0.781885 150:-0.709983 151:-0.566545 152:-0.211216 153:-0.557426 154:-0.556527 155:-0.851771 156:-0.239693 157:0.212018 158:0.0967855 159:-0.8919 160:-0.0219665 161:-0.54023 162:-0.506859 163:-0.511875 164:0.345061 165:-0.210965 166:-0.321224 167:-0.858622 168:-0.919337 169:-0.525562 170:-0.541734 171:-0.703055 172:0.0809988 173:0.771678 174:0.766657 175:0.453541 176:-0.16088 177:-0.880719 178:-0.4155 179:-0.685528 180:-0.660733 181:-0.495327 182:-0.872034 183:-0.538811 184:-0.0355882 185:-0.23888 186:-0.844706 187:-0.909122 188:-0.910191 189:0.395376 190:0.512042 191:0.726208 192:-0.636483 193:-0.427404 194:-0.136103 195:-0.754051 196:0.437917 197:0.0790274 198:0.0649771 199:0.312142 200:0.908602 201:-0.342288 202:-0.132029 203:-0.138498 204:-0.133427 205:0.39246 206:-0.826297 207:0.515798 208:-0.222453 209:-0.15153 210:-0.931487 211:-0.324329 212:-0.535644 213:-0.0103544 214:0.0433505 215:-0.366086 216:0.66639 217:-0.670172 218:-0.527402 219:0.187859 220:-0.665467 221:-0.373741 222:0.0660122 223:0.181692 224:0.400394 225:-0.0600815 226:-0.307022 227:0.567795 228:0.204804 229:-0.576939 230:-0.0271011 231:-0.40899 232:-0.828762 233:-0.279416 234:0.801862 235:-0.00803353 236:-0.679298 237:0.740196 238:-0.886407 239:0.505034 240:-0.641 241:-0.403707 242:-0.158087 243:0.317232 244:0.22802 245:0.0438298 246:-0.115695 247:-0.694777 248:0.0423119 249:-0.324912 250:-0.218661 251:-0.522903 252:0.187291 253:0.735941 254:-1 255:1 256:-0.186842 257:-0.507116 258:-0.692572 259:0.810247 260:-0.198396 261:-0.254683 262:0.0070133 263:-0.613851 264:-0.294379 265:-0.491085 266:0.322864 267:-0.396535 268:-0.187333 269:0.260262 270:-0.551331 271:-0.103284 272:-0.529845 273:-0.575917 274:0.872448 275:-0.544924 276:-0.033046 277:-0.447153 278:0.570507 279:-0.083871 280:-0.47169 281:-0.812124 282:0.244324 283:0.243318 284:0.00954702 285:-0.773719 286:0.259759 287:0.244367 288:-0.153404 289:-0.149497 290:-0.389405 291:-0.30352 292:-0.322778 293:1 294:-0.676345 295:-0.309329 296:-0.423526 297:-0.523503 298:-1 299:-0.186089 300:-0.0683637 301:-0.38039 302:-0.101753 303:0.138429 304:-0.0100604 305:0.12904 306:-0.0187553 307:0.449308 308:-0.551661 309:-0.421353 310:-0.944209 311:-0.0445982 312:0.316949 313:-0.44021 314:0.235006 315:-0.335621 316:0.422031 317:-0.289701 318:-0.00406019 319:-1 320:-0.221457 321:-0.664686 322:-0.186313 323:-0.537979 324:-0.78403 325:-0.0205384 326:-0.740378 327:-0.920283 328:-0.688066 329:-0.421353 330:0.0173377 331:0.369427 332:-0.710676 333:0.190883 334:-0.583903 335:-0.346976 336:-0.428323 337:0.327812 338:0.392018 339:-0.729781 340:-0.364322 341:0.155325 342:-0.201434 343:-0.479851 344:-0.299314 345:-0.685702 346:0.0118141 347:-0.817829 348:0.155787 349:-0.144873 350:-0.253392 351:0.190709 352:-0.359355 353:-0.0741646 354:-0.0791503 355:-0.575359 356:-1 357:0.621913 358:-0.2822 359:-0.20327 
-21.347214836368323 26.306975994206056 0:-0.389671 1:-0.819047 2:-0.532231 3:-0.272103 4:1 5:-0.965889 6:-0.841428 7:-0.79666 8:-0.550861 9:-0.907679 10:-0.0142805 11:-0.623627 12:-0.942829 13:-0.761472 14:-0.154849 15:-0.396752 16:-0.85454 17:-0.858197 18:-0.800119 19:-0.820569 20:-0.840073 21:-0.5008 22:-1 23:-0.490401 24:-0.840206 25:-0.908783 26:-0.964043 27:-0.700849 28:0.524061 29:-0.0202497 30:1 31:-0.533935 32:-0.536419 33:1 34:-1 35:-0.885191 36:-0.563305 37:-0.976936 38:-0.835856 39:-0.867513 40:-0.397428 41:-0.663748 42:-0.497711 43:1 44:-0.582227 45:-0.393652 46:-1 47:-1 48:-0.906393 49:-0.540436 50:-0.789544 51:-0.702947 52:-0.742674 53:-0.504467 54:-0.252564 55:-1 56:-0.302438 57:-0.773296 58:1 59:-0.887816 60:-0.954923 61:-0.352309 62:-0.796073 63:-0.616866 64:-0.564194 65:-0.100713 66:-0.760076 67:-0.345311 68:1 69:-0.445141 70:-0.622103 71:-0.139852 72:-0.698587 73:-0.734333 74:-0.755987 75:-0.470933 76:-0.397529 77:-0.712477 78:-0.724841 79:-0.470637 80:-0.353354 81:-0.850213 82:-0.914808 83:-0.281641 84:-0.953827 85:-0.456873 86:-0.893393 87:-0.574746 88:-0.58197 89:-0.459698 90:1 91:-0.981918 92:-0.678412 93:-0.292514 94:-0.587407 95:-0.948533 96:-0.921837 97:-0.851768 98:0.0488445 99:-0.59714 100:-0.155806 101:-0.948918 102:-0.498835 103:1 104:1 105:-0.640567 106:-0.434187 107:-0.823582 108:-1 109:-0.366998 110:-0.797883 111:-0.691166 112:-0.204734 113:-0.305726 114:1 115:-0.260294 116:-0.750451 117:-0.703561 118:-0.788978 119:-0.234275 120:1 121:-0.563274 122:-0.636453 123:0.0193548 124:-0.747162 125:-0.377237 126:-0.588307 127:0.723081 128:-0.824598 129:-0.469632 130:1 131:-0.65216 132:-0.613096 133:-0.263193 134:-0.718784 135:-0.649683 136:-0.559203 137:-0.328306 138:-0.902603 139:-0.670881 140:-0.183962 141:-0.824722 142:0.239497 143:-0.759527 144:-0.162835 145:-0.938424 146:-0.561029 147:-1 148:-0.661734 149:-0.509468 150:-0.775496 151:0.162882 152:-0.819894 153:0.00545426 154:-0.616073 155:-0.9411 156:-0.287168 157:-0.501878 158:-0.526555 159:-0.750508 160:-0.759414 161:-0.614538 162:-0.506512 163:-0.93275 164:-0.334777 165:-0.117985 166:-0.265774 167:-0.113102 168:-0.77312 169:-0.823369 170:-0.633614 171:-0.316319 172:-0.579172 173:-0.0417966 174:0.146807 175:-0.293697 176:-0.455459 177:-0.879599 178:-0.688081 179:-0.421769 180:-0.55967 181:-0.711474 182:-0.501712 183:-0.376421 184:0.29367 185:-0.765756 186:-0.892773 187:-0.868931 188:-0.889868 189:-0.680462 190:0.0144503 191:-0.776476 192:-0.820217 193:-0.435284 194:-0.466018 195:-0.793388 196:-0.435247 197:-0.0664351 198:-0.736856 199:-0.347256 200:-0.678614 201:-0.804308 202:-0.467808 203:-0.48629 204:-0.878745 205:-0.765526 206:1 207:-0.0162254 208:-0.840748 209:0.0645315 210:-0.777671 211:-0.865628 212:-0.028995 213:-0.602549 214:-0.774431 215:-0.835406 216:-1 217:-0.494743 218:-0.250055 219:-0.192161 220:-1 221:-0.91155 222:-0.719702 223:-0.275451 224:-0.242604 225:-0.48391 226:-0.914767 227:-0.667678 228:-0.37841 229:-0.592872 230:-0.649208 231:-0.65899 232:-0.611564 233:-0.33752 234:-0.693816 235:-0.803237 236:-0.839064 237:-0.473039 238:-0.748075 239:-0.226815 240:-0.796959 241:0.316277 242:-0.970792 243:-0.759791 244:-0.601614 245:-0.717725 246:-0.335902 247:-0.559791 248:-0.694002 249:-0.499321 250:-0.224373 251:-0.70747 252:0.181271 253:0.00162999 254:1 255:-0.590899 256:-1 257:0.14613 258:-0.58946 259:-0.7857 260:-0.815808 261:-0.449183 262:-0.886094 263:-0.874728 264:-0.668962 265:-0.532121 266:0.226511 267:-0.81677 268:-0.706982 269:-0.0459286 270:-1 271:-0.827673 272:-0.855309 273:-0.596225 274:-0.751778 275:-0.877899 276:-0.583812 277:-0.755569 278:-0.207373 279:-0.320553 280:-0.764308 281:-0.970037 282:-0.702562 283:-0.617696 284:-0.0014219 285:-0.842521 286:-0.509581 287:1 288:-0.716188 289:-0.466459 290:-0.47162 291:-0.744253 292:-0.706982 293:-0.394366 294:-0.709166 295:-0.589078 296:-0.633392 297:-0.937218 298:-0.966828 299:-0.748233 300:-0.697677 301:-0.772932 302:0.0547623 303:-0.179049 304:-0.455846 305:-0.187455 306:-1 307:-0.0941257 308:-0.924477 309:-0.649552 310:-0.420713 311:-0.675125 312:-0.323441 313:-0.273587 314:-0.304774 315:0.0542732 316:-0.53114 317:-0.538376 318:-0.824218 319:-0.620647 320:-0.752895 321:-0.714074 322:-0.673215 323:-0.798374 324:-0.766388 325:-1 326:-0.873663 327:0.333215 328:-0.679852 329:-0.593317 330:-0.449778 331:-0.348195 332:-0.248981 333:-0.472527 334:0.0502051 335:-0.117038 336:-0.923975 337:-0.179268 338:-0.237732 339:-0.693417 340:-0.82557 341:-0.431953 342:-0.838191 343:-0.850179 344:-0.496141 345:-0.218017 346:-0.365713 347:-1 348:-0.44978 349:-0.207158 350:-0.934064 351:-0.69697 352:-1 353:-0.348981 354:-0.350433 355:-0.842447 356:-0.754879 357:-0.510864 358:-0.370345 359:-0.72908 
-57.93008380434474 61.652332554705879 0:-0.00397255 1:-0.20615 2:0.0297521 3:0.310999 4:-0.792154 5:-0.231002 6:-0.0896579 7:-0.63123 8:-0.429639 9:-0.296937 10:-0.00307303 11:-1 12:-0.592114 13:-0.400813 14:-0.284841 15:-0.105122 16:-0.87077 17:-0.884343 18:-0.471914 19:-0.330103 20:-0.212407 21:0.455153 22:-0.159903 23:-0.524532 24:-0.00408831 25:-0.894954 26:-0.882525 27:-0.543342 28:-0.527137 29:-0.165603 30:-0.950671 31:-0.273441 32:-0.495775 33:-1 34:-0.388115 35:-0.378744 36:-0.75633 37:-0.212093 38:0.0237875 39:-0.355155 40:0.311533 41:-0.670753 42:-0.453673 43:-0.979763 44:1 45:-0.0500553 46:-0.290679 47:-0.676918 48:-0.819823 49:-0.275545 50:0.161001 51:-0.260904 52:0.119732 53:-0.689082 54:0.307144 55:-0.678126 56:-0.531385 57:-0.841462 58:-0.435985 59:-0.429532 60:-0.362002 61:-0.788741 62:-0.537682 63:0.191567 64:-0.46674 65:0.590974 66:0.0866392 67:-0.160171 68:-0.985042 69:0.304424 70:-0.455882 71:0.0956023 72:-0.311224 73:0.445598 74:-0.783323 75:0.21079 76:0.0817807 77:0.0408068 78:-0.239592 79:-0.654535 80:-0.225933 81:-0.91646 82:-0.312819 83:-0.167899 84:-0.339904 85:-0.841763 86:-0.652138 87:-0.604983 88:-0.264061 89:-0.3482 90:-0.897999 91:-0.0585351 92:-0.452244 93:0.154702 94:0.309583 95:-0.487452 96:-0.703465 97:-0.838746 98:0.0535714 99:0.200589 100:-0.161706 101:-0.15431 102:0.324219 103:-0.609045 104:-0.714109 105:-0.793037 106:-0.249547 107:-0.352452 108:-0.536384 109:-0.396921 110:-0.358544 111:-0.746399 112:0.334911 113:0.703136 114:-1 115:-0.0339514 116:-0.728422 117:-0.486051 118:-0.0166699 119:-0.0479468 120:-0.98666 121:-0.18505 122:-0.752836 123:-0.260461 124:-0.079476 125:-0.369128 126:-0.267235 127:-1 128:0.192316 129:0.0184847 130:-0.97746 131:-0.37023 132:-0.318078 133:0.327047 134:-0.699375 135:0.0169835 136:0.288685 137:0.209772 138:0.384904 139:-0.374455 140:0.766038 141:-0.727574 142:0.309043 143:0.046807 144:-0.168049 145:-0.742805 146:-0.249422 147:0.50365 148:0.500732 149:-0.199179 150:-0.411558 151:-0.449084 152:-0.612771 153:-0.374786 154:-0.373725 155:-0.0297761 156:0.163305 157:-0.400819 158:0.520615 159:-0.745534 160:-0.666318 161:-0.553505 162:0.262372 163:-0.812 164:-0.185927 165:-0.16429 166:0.0546845 167:-0.401035 168:-0.886049 169:-0.00459908 170:0.0255142 171:0.542474 172:0.373934 173:0.251404 174:-0.0295825 175:-0.414555 176:-0.48146 177:-1 178:-0.616248 179:-0.777876 180:-0.341058 181:-0.678929 182:-0.578252 183:-0.43001 184:-0.591415 185:-0.353254 186:-0.528403 187:-0.721905 188:-0.830839 189:-0.420347 190:0.0927749 191:-0.302587 192:-0.706554 193:0.0179483 194:-0.477142 195:-0.401705 196:0.232043 197:0.415111 198:-0.32866 199:0.297357 200:0.34767 201:-0.709819 202:-0.693562 203:-0.779639 204:-0.661049 205:-0.67226 206:-0.931878 207:-0.143467 208:-0.317672 209:-0.520554 210:-0.951558 211:-0.31671 212:-0.234794 213:-0.500996 214:-0.078986 215:-0.105721 216:0.64426 217:-0.704483 218:0.112492 219:0.917304 220:-0.561063 221:-0.422705 222:0.391672 223:0.530097 224:0.112426 225:-0.336253 226:-0.484528 227:0.100583 228:-0.0836705 229:-0.226415 230:-0.236602 231:-0.095727 232:0.263158 233:-0.204948 234:0.0455452 235:-0.474677 236:-0.171617 237:-0.139706 238:-0.83895 239:0.0630631 240:-0.587445 241:0.35415 242:0.177802 243:-0.463882 244:0.734217 245:0.105761 246:0.1106 247:-0.676721 248:-0.376445 249:0.157838 250:-0.39067 251:-0.775339 252:0.341806 253:-0.284841 254:-0.944364 255:0.272379 256:-0.461579 257:0.131204 258:0.584113 259:0.103059 260:-0.738832 261:-0.545636 262:-0.623942 263:-0.5 264:0.560098 265:-0.73049 266:-0.466063 267:0.0531767 268:0.0522701 269:-0.443976 270:-0.282246 271:-0.366826 272:-0.293421 273:-0.341058 274:0.0204175 275:-0.666564 276:0.167625 277:-0.609588 278:-0.352995 279:0.571244 280:-0.561175 281:-0.937549 282:-0.250989 283:-0.122028 284:-0.38899 285:-0.915866 286:-0.0212917 287:0.506259 288:-1 289:0.141112 290:0.0347437 291:-0.243175 292:-0.617322 293:0.553803 294:-0.665965 295:-0.69482 296:-0.709866 297:-0.321314 298:-0.951851 299:-0.552566 300:-0.407952 301:-0.707008 302:-0.00307247 303:-0.196152 304:-0.382964 305:1 306:0.0528559 307:-0.203901 308:-0.458918 309:-0.509698 310:-0.33019 311:-0.421761 312:-0.186181 313:-0.209461 314:-0.497348 315:0.0948222 316:-0.139342 317:-0.481719 318:-0.29305 319:-0.257101 320:-0.496702 321:0.126996 322:-0.179109 323:0.233914 324:-0.694905 325:-0.0532403 326:-0.770911 327:0.400886 328:0.492122 329:-0.387123 330:-0.209629 331:0.00424628 332:0.0215974 333:-0.845747 334:-0.216253 335:-0.538745 336:-0.697888 337:-0.598183 338:0.296926 339:0.710972 340:0.17575 341:-0.258284 342:-0.773467 343:-0.60446 344:-0.44211 345:-0.278663 346:0.0233657 347:-0.781567 348:-0.592056 349:-0.48245 350:-0.274098 351:-0.498458 352:-0.420592 353:0.144254 354:-0.880724 355:-0.357485 356:0.272443 357:-0.572145 358:-0.531602 359:-0.0355883 
-42.292761570480401 22.676761720171452 0:-0.263272 1:-0.654263 2:-0.366942 3:1 4:-0.746206 5:-0.208549 6:-0.019248 7:1 8:-1 9:-0.389259 10:-0.907809 11:-0.970596 12:-0.0793494 13:0.340583 14:-0.584352 15:-0.453864 16:-0.942122 17:-0.921563 18:-0.643172 19:-0.71116 20:-0.194346 21:-1 22:-0.878261 23:0.450581 24:-0.396099 25:-0.893138 26:-0.761068 27:-0.603451 28:-0.40189 29:-0.151179 30:-0.966545 31:-0.0564927 32:-0.179074 33:-1 34:0.276677 35:-0.684484 36:-0.528578 37:1 38:0.14983 39:-0.738143 40:-0.11053 41:-0.553415 42:-0.555265 43:-0.958881 44:0.398072 45:0.932417 46:-0.852225 47:-0.787397 48:-0.774855 49:-1 50:0.438118 51:0.156778 52:-0.715322 53:0.0124069 54:-0.468104 55:-0.814145 56:-0.606087 57:-0.641673 58:-0.999242 59:-0.911685 60:-0.560564 61:-0.354839 62:-0.0392654 63:-0.299007 64:-0.0358609 65:-0.710689 66:0.273247 67:-0.223508 68:-1 69:-0.644026 70:0.352941 71:-0.303469 72:0.200942 73:0.764321 74:-0.904702 75:-0.400251 76:1 77:-0.77439 78:-0.578164 79:-0.718776 80:-0.284311 81:-0.892592 82:-0.435904 83:1 84:0.444326 85:0.663379 86:-1 87:-0.163764 88:-0.960511 89:-0.332404 90:-1 91:-0.818878 92:-0.257034 93:-0.412668 94:-0.511737 95:-0.147597 96:-0.593876 97:-0.918006 98:-1 99:-0.203112 100:-0.00884956 101:0.225967 102:0.267671 103:-0.681871 104:-0.903056 105:-0.719279 106:0.300233 107:-0.792856 108:0.23871 109:-0.678032 110:-0.476768 111:-0.890126 112:-0.245562 113:-0.395706 114:-1 115:0.719239 116:-1 117:-0.524602 118:1 119:-0.273677 120:-1 121:-0.171237 122:-0.496992 123:-0.247926 124:0.497817 125:-0.572148 126:-0.00609013 127:-1 128:-0.421591 129:-0.378428 130:-1 131:-1 132:0.326527 133:0.687014 134:-0.68816 135:0.551331 136:0.318888 137:-0.0770623 138:-0.350066 139:0.860942 140:-0.404245 141:-0.889161 142:-0.636838 143:-0.290064 144:0.692344 145:-0.671117 146:-0.306028 147:0.86764 148:-0.382013 149:0.163587 150:0.5991 151:-1 152:0.0241506 153:-0.682094 154:-0.362898 155:-0.505108 156:0.456363 157:-0.303517 158:0.99441 159:-1 160:-0.78818 161:-0.917436 162:-0.645772 163:-0.68125 164:0.656292 165:-0.433228 166:0.560229 167:-1 168:-0.884117 169:-0.664867 170:0.874337 171:-0.472057 172:0.242387 173:0.272614 174:0.410008 175:-0.0662768 176:-0.849313 177:-0.94288 178:-0.662427 179:-1 180:-0.0252061 181:-0.261371 182:-0.877441 183:-0.834362 184:-0.722901 185:0.361841 186:-0.516975 187:-0.825924 188:-0.913986 189:0.17896 190:0.436649 191:-0.0326989 192:-0.925395 193:0.930833 194:-0.290805 195:-0.961974 196:-0.220294 197:0.107251 198:-1 199:-0.62299 200:-0.0860215 201:-0.527559 202:0.870008 203:-0.722804 204:0.0632022 205:1 206:-0.75051 207:-0.346712 208:0.864449 209:-0.756214 210:-0.901573 211:-0.655065 212:-1 213:0.0155317 214:0.498898 215:0.230929 216:-0.169018 217:-0.130603 218:-0.0947415 219:-0.268642 220:0.297978 221:1 222:-0.0998646 223:0.697642 224:0.00591716 225:-0.0653768 226:-0.282935 227:-0.468378 228:-0.467432 229:0.751782 230:0.242387 231:-0.575472 232:-0.845441 233:-0.9353 234:0.490691 235:-0.168704 236:-0.15406 237:1 238:-0.769027 239:-0.72973 240:-0.928396 241:0.176471 242:-0.263965 243:0.547868 244:0.176131 245:0.030782 246:0.352057 247:-0.196246 248:-0.529117 249:-0.168704 250:-0.0504602 251:-0.314593 252:0.0234114 253:0.246944 254:-1 255:-0.462896 256:-0.315789 257:-0.468934 258:0.128509 259:0.325151 260:0.146163 261:-0.838581 262:-0.245707 263:-0.260334 264:-0.649856 265:-0.543052 266:-0.728507 267:-0.0260904 268:-0.610836 269:-0.547371 270:-0.188652 271:-0.570587 272:-0.462526 273:-0.268905 274:-0.0750172 275:-0.69851 276:0.072318 277:-0.551154 278:-0.247926 279:0.879816 280:-0.0818061 281:-0.735041 282:-0.661737 283:0.409954 284:0.243144 285:-0.742583 286:-0.0951029 287:0.276915 288:-0.147352 289:-0.26689 290:-0.122807 291:-0.407687 292:-0.610836 293:-0.425352 294:-0.713865 295:-0.208941 296:-1 297:-0.0598841 298:-1 299:-0.657013 300:-0.196956 301:-0.52855 302:-0.0782577 303:0.090326 304:1 305:0.0644003 306:0.509804 307:-0.768655 308:-0.761993 309:0.330073 310:-1 311:-0.0196078 312:-0.290517 313:-0.195795 314:0.0350877 315:0.272614 316:0.264473 317:-0.18504 318:-0.58204 319:-0.118301 320:-0.111535 321:-0.508726 322:0.335953 323:-0.924739 324:-1 325:0.0671984 326:-0.720267 327:-0.296014 328:-0.677171 329:-0.168704 330:0.169222 331:-0.514331 332:-0.376528 333:-0.216117 334:0.195546 335:-0.29639 336:-0.753789 337:-0.454983 338:0.517663 339:-0.535423 340:0.341693 341:-0.245562 342:-0.487359 343:-0.409313 344:-0.204974 345:-0.0969456 346:0.313731 347:0.330455 348:-0.335829 349:-0.298004 350:-0.873555 351:0.0691345 352:-0.18692 353:-0.334963 354:-0.71487 355:0.0456254 356:-0.492584 357:0.10195 358:0.436625 359:0.308112 
-20.64065927174601 10.554027064535614 0:-0.547851 1:-0.802954 2:0.390496 3:0.637196 4:-1 5:-0.177893 6:0.259001 7:-0.33298 8:-0.59311 9:-0.687084 10:-0.66034 11:-0.963908 12:-0.567866 13:-0.401291 14:-0.489813 15:-0.329288 16:-0.487368 17:-0.903722 18:-0.831127 19:1 20:-0.27889 21:-0.601977 22:-0.16087 23:0.484238 24:0.433477 25:-0.912555 26:-0.853361 27:-0.47405 28:-0.748187 29:0.0424411 30:-1 31:-0.519812 32:0.25996 33:-1 34:0.443578 35:-0.457571 36:0.512082 37:-0.0179211 38:0.0742457 39:-0.495213 40:-0.454109 41:-0.17732 42:-0.180728 43:-0.899057 44:-0.786782 45:0.186483 46:-0.128938 47:-0.415806 48:-0.877485 49:-0.337046 50:-0.0275123 51:-1 52:0.39827 53:-0.533747 54:0.0884756 55:-0.748759 56:-0.87861 57:-0.823963 58:-0.199621 59:0.0044483 60:-0.431969 61:0.0562935 62:-0.934769 63:0.190351 64:-0.810019 65:-0.600475 66:-0.15265 67:0.144032 68:-1 69:0.172065 70:-0.959002 71:0.881453 72:0.228807 73:0.203768 74:-0.532288 75:0.366374 76:0.228084 77:0.509381 78:-0.481941 79:-0.654811 80:-0.472635 81:-0.896245 82:-0.95297 83:0.133504 84:-0.407388 85:-1 86:-1 87:-0.999274 88:0.0849621 89:0.465273 90:-0.745134 91:-0.520074 92:-0.429846 93:0.201919 94:1 95:-0.674607 96:-0.476833 97:-1 98:-0.0131303 99:0.0412111 100:-0.0951998 101:1 102:-0.221687 103:-0.902378 104:-0.761916 105:0.551122 106:0.720714 107:-0.513507 108:0.176894 109:0.503381 110:-0.165204 111:-0.449146 112:0.667456 113:-0.237219 114:-1 115:-0.397062 116:-0.773926 117:-0.486659 118:-0.508923 119:-0.256824 120:-0.96673 121:-1 122:-0.505868 123:-0.0764977 124:-0.463319 125:-0.649888 126:-0.390012 127:-1 128:-0.227396 129:0.017469 130:-1 131:-0.568275 132:-0.186763 133:-0.792887 134:-0.808066 135:-0.0474018 136:1 137:0.133162 138:-0.836299 139:0.225371 140:0.350943 141:-0.931975 142:-0.405412 143:-0.564294 144:0.780991 145:-0.499611 146:-0.147911 147:-0.0264396 148:0.417792 149:1 150:0.0286497 151:-0.694261 152:-0.459271 153:-1 154:-1 155:-0.983482 156:0.341067 157:0.0689655 158:-0.0496157 159:-0.0465895 160:-0.338912 161:-0.898656 162:-0.565029 163:-0.530375 164:0.0170501 165:0.391739 166:-0.281453 167:-0.501394 168:-0.85776 169:-0.806839 170:-0.0817726 171:0.400894 172:0.334653 173:-0.218964 174:-0.653857 175:-0.17089 176:-0.259861 177:-1 178:-0.429182 179:-0.722733 180:-0.700872 181:-0.314067 182:-0.172364 183:-0.186424 184:-0.659875 185:0.291087 186:-0.781849 187:-1 188:-0.894422 189:-0.71052 190:-0.485236 191:-0.915081 192:-1 193:-0.604261 194:-0.12915 195:-0.214761 196:1 197:-0.184108 198:-0.599892 199:-0.305489 200:-0.252091 201:-0.41987 202:-0.234311 203:-0.255559 204:-0.250936 205:-0.181085 206:-0.829777 207:-0.465414 208:0.0461538 209:-0.40153 210:-0.879186 211:0.549784 212:0.0922171 213:-0.251693 214:-0.309699 215:0.567993 216:-0.258091 217:-0.219701 218:0.111604 219:-0.101816 220:-0.214899 221:-0.472853 222:0.984089 223:0.737032 224:0.235207 225:-0.617312 226:-0.763943 227:-0.251342 228:-0.0191881 229:-0.647379 230:-0.618758 231:-0.304939 232:-0.875278 233:-0.682207 234:-0.579787 235:-0.270928 236:1 237:-0.693137 238:-0.364887 239:-0.668256 240:-0.759882 241:-0.757454 242:-0.0518437 243:-0.137511 244:0.44422 245:-0.0794818 246:-0.186156 247:-0.282224 248:-0.923446 249:-0.659875 250:0.642018 251:-0.579124 252:-0.162542 253:-0.489813 254:-1 255:-0.847331 256:0.197368 257:0.0867754 258:-0.278213 259:0.931424 260:-0.251546 261:-0.496214 262:-0.806288 263:-0.886512 264:-1 265:-0.438939 266:1 267:1 268:-0.0442579 269:0.667184 270:-0.649313 271:-0.472635 272:-0.316578 273:0.0471867 274:-0.0956641 275:-0.705422 276:-0.793582 277:-0.0248493 278:-0.307281 279:-0.0764977 280:-0.741169 281:-0.926749 282:1 283:-0.192074 284:0.271989 285:-0.93981 286:1 287:-0.68653 288:0.477761 289:-0.0999042 290:-0.138287 291:-0.198994 292:-0.52232 293:-0.294648 294:-0.824321 295:-0.326462 296:-0.417688 297:-0.402769 298:-1 299:-0.381756 300:-0.671434 301:-0.373731 302:0.131755 303:0.673437 304:-1 305:0.697869 306:0.905797 307:0.988206 308:-0.61353 309:-0.59185 310:-0.803237 311:0.685121 312:-0.128681 313:-0.341919 314:-0.446756 315:-0.218964 316:0.194468 317:-0.482277 318:-0.443277 319:-0.535935 320:-0.607211 321:-0.990717 322:-0.179764 323:0.029036 324:1 325:0.594816 326:-1 327:-0.332507 328:-0.684713 329:0.275876 330:-0.461527 331:1 332:-0.489813 333:-0.234432 334:-0.265872 335:-1 336:-0.978385 337:-0.665509 338:0.91751 339:-0.782445 340:0.434282 341:0.667456 342:-0.589409 343:-0.604897 344:0.0939108 345:0.108676 346:0.0223156 347:-0.34945 348:0.42699 349:-0.353407 350:-0.30003 351:0.136999 352:-0.399601 353:-1 354:-0.80236 355:0.177033 356:-0.90268 357:-0.526091 358:-0.0614964 359:-0.598589 
-0.71805168961585386 0 0:0.301914 1:-0.698991 2:1 3:0.325707 4:-1 5:-0.946028 6:0.647951 7:-0.446182 8:-0.267793 9:-0.120728 10:-1 11:-0.973998 12:-0.740956 13:-0.138384 14:-0.449063 15:-0.195788 16:-0.0124024 17:-1 18:-0.699702 19:0.482338 20:-0.0825808 21:-0.362117 22:-0.935749 23:0.922731 24:0.111085 25:-0.87407 26:-0.894472 27:-0.794907 28:-0.110086 29:1 30:-0.970416 31:-0.196155 32:-0.0933602 33:-1 34:-0.120256 35:-0.452579 36:0.576328 37:-0.119838 38:-0.194522 39:-0.188822 40:0.571833 41:-0.408056 42:-0.213865 43:-0.963638 44:-0.178427 45:-0.00363177 46:-0.470932 47:-0.619589 48:-0.820281 49:-0.37385 50:1 51:-0.714735 52:-0.497069 53:-0.552605 54:0.0968191 55:-0.847494 56:-1 57:-0.936683 58:0.150758 59:-0.474232 60:-1 61:-0.429897 62:0.0956301 63:0.67687 64:-0.659458 65:0.303563 66:0.370993 67:-0.176614 68:-1 69:1 70:-0.233957 71:0.969407 72:-0.115777 73:0.212995 74:-0.595486 75:0.606441 76:0.767798 77:-0.407129 78:-0.25448 79:-0.378825 80:-0.620544 81:-0.989852 82:-1 83:0.223714 84:0.0147398 85:-0.505981 86:-0.874792 87:-0.387518 88:0.993219 89:-0.442509 90:-0.938827 91:-0.459087 92:-0.58973 93:-0.480998 94:-0.203811 95:-0.765419 96:-0.562853 97:-0.855145 98:-0.0530462 99:-0.517241 100:-0.377849 101:-0.422136 102:-0.579929 103:-0.71883 104:-0.914366 105:-0.503784 106:-0.14766 107:-0.507361 108:-0.732633 109:0.04877 110:-0.669592 111:-0.122494 112:1 113:-0.476483 114:-1 115:-0.348904 116:-0.674612 117:-0.974637 118:-0.4697 119:0.069784 120:-1 121:-0.26752 122:-0.911037 123:-1 124:0.487336 125:-0.621924 126:0.0976857 127:-1 128:-0.897265 129:-0.176112 130:-1 131:-0.165878 132:-0.495863 133:-0.552688 134:-0.181799 135:-0.543219 136:0.5058 137:0.495099 138:0.0451395 139:-0.157367 140:1 141:-0.853083 142:-0.0372656 143:-1 144:0.708936 145:-0.425201 146:-0.509321 147:0.452068 148:-0.331924 149:0.439653 150:0.126039 151:-0.669841 152:0.431846 153:-0.438055 154:-0.812201 155:-1 156:0.126182 157:1 158:-0.828791 159:-0.771315 160:-0.61454 161:-0.926987 162:-1 163:-0.774625 164:0.219486 165:-0.832932 166:0.378585 167:-0.641179 168:-0.79516 169:-0.960541 170:0.894551 171:0.279061 172:0.50944 173:0.40549 174:-0.00304119 175:-0.220273 176:-0.0678091 177:-0.899087 178:-0.424051 179:-0.600709 180:-1 181:-0.350881 182:-0.241935 183:-0.560896 184:-0.510459 185:0.643139 186:-0.748235 187:-0.961515 188:-0.885989 189:-0.583121 190:0.0492147 191:0.0136652 192:-0.934026 193:-0.626441 194:0.566835 195:-0.815304 196:0.992523 197:0.369952 198:-0.789161 199:-0.000554426 200:-0.730585 201:-0.478231 202:0.101874 203:-0.230831 204:-0.286517 205:-0.410765 206:-0.97548 207:-0.615286 208:0.618295 209:0.723231 210:-1 211:1 212:0.375627 213:0.0768618 214:-0.668993 215:0.0588723 216:-0.0511757 217:-0.26176 218:1 219:0.508126 220:-0.880919 221:-0.680948 222:1 223:1 224:1 225:-0.816497 226:-0.894015 227:-1 228:1 229:-0.0385744 230:0.0977467 231:-0.374861 232:-0.972943 233:-0.542658 234:0.743019 235:-0.265339 236:-0.275494 237:-0.558333 238:-0.358829 239:-0.0445151 240:-0.686513 241:-0.172442 242:-0.701351 243:-0.442994 244:-0.220525 245:0.325002 246:-0.258109 247:-0.806262 248:-1 249:-0.75523 250:-0.487147 251:-0.394333 252:0.507023 253:-0.449063 254:-1 255:-0.3468 256:-0.172105 257:0.0951059 258:-0.029979 259:0.491525 260:-0.32646 261:0.371463 262:-1 263:-0.591552 264:0.245945 265:-0.919183 266:0.199361 267:0.0117506 268:-0.312095 269:1 270:-0.591109 271:-0.367668 272:1 273:-0.0309402 274:-0.0043588 275:-0.882507 276:0.54933 277:-0.389735 278:0.827465 279:-0.169401 280:-0.664585 281:-0.737131 282:-0.148094 283:-0.0862673 284:0.0985172 285:-0.878295 286:-0.0404542 287:-0.322984 288:0.544932 289:0.40345 290:-0.690058 291:-1 292:-0.140404 293:-0.492394 294:-0.778736 295:-0.561504 296:0.0350263 297:0.386671 298:-0.956747 299:-0.313569 300:-0.526834 301:-0.907774 302:0.303091 303:-0.0363442 304:0.130785 305:-0.106057 306:-0.268968 307:0.226582 308:-0.74305 309:-0.412225 310:-0.433443 311:-0.306805 312:-0.373058 313:-0.0522996 314:-0.110159 315:-0.718653 316:0.547353 317:-0.55261 318:-0.437545 319:-0.554705 320:-0.365382 321:-0.786112 322:-0.852325 323:0.290128 324:0.0965779 325:-0.434098 326:-0.835268 327:-0.550044 328:-0.651358 329:-0.265281 330:-0.612552 331:0.108811 332:0.652812 333:-0.336996 334:-0.471772 335:-0.585652 336:-0.462112 337:0.44483 338:0.658201 339:-0.892163 340:-0.0808976 341:1 342:-0.635745 343:-0.627049 344:0.0287307 345:-0.501328 346:-0.110003 347:-0.847183 348:0.0271854 349:-0.0695114 350:-1 351:0.736164 352:0.325353 353:-0.852975 354:-0.487333 355:0.46309 356:-0.850638 357:0.282451 358:-0.669286 359:-0.133055 
